Language model created by QuickLM on Mon Apr 22 06:55:04 EDT 2024
Copyright (c) 1996-2010 Carnegie Mellon University and Alexander I. Rudnicky

The model is in standard ARPA format, designed by Doug Paul while he was at MITRE.

The code that was used to produce this language model is available in Open Source.
Please visit http://www.speech.cs.cmu.edu/tools/ for more information

The (fixed) discount mass is 0.5. The backoffs are computed using the ratio method.
This model based on a corpus of 9894 sentences and 9896 words

\data\
ngram 1=9896
ngram 2=19788
ngram 3=9894

\1-grams:
-0.7782 </s> -0.3010
-0.7782 <s> -0.2218
-4.7735 A -0.2218
-4.7735 AA -0.2218
-4.7735 AAA -0.2218
-4.7735 AARON -0.2218
-4.7735 AB -0.2218
-4.7735 ABANDONED -0.2218
-4.7735 ABC -0.2218
-4.7735 ABERDEEN -0.2218
-4.7735 ABILITIES -0.2218
-4.7735 ABILITY -0.2218
-4.7735 ABLE -0.2218
-4.7735 ABORIGINAL -0.2218
-4.7735 ABORTION -0.2218
-4.7735 ABOUT -0.2218
-4.7735 ABOVE -0.2218
-4.7735 ABRAHAM -0.2218
-4.7735 ABROAD -0.2218
-4.7735 ABS -0.2218
-4.7735 ABSENCE -0.2218
-4.7735 ABSENT -0.2218
-4.7735 ABSOLUTE -0.2218
-4.7735 ABSOLUTELY -0.2218
-4.7735 ABSORPTION -0.2218
-4.7735 ABSTRACT -0.2218
-4.7735 ABSTRACTS -0.2218
-4.7735 ABU -0.2218
-4.7735 ABUSE -0.2218
-4.7735 AC -0.2218
-4.7735 ACADEMIC -0.2218
-4.7735 ACADEMICS -0.2218
-4.7735 ACADEMY -0.2218
-4.7735 ACC -0.2218
-4.7735 ACCENT -0.2218
-4.7735 ACCEPT -0.2218
-4.7735 ACCEPTABLE -0.2218
-4.7735 ACCEPTANCE -0.2218
-4.7735 ACCEPTED -0.2218
-4.7735 ACCEPTING -0.2218
-4.7735 ACCEPTS -0.2218
-4.7735 ACCESS -0.2218
-4.7735 ACCESSED -0.2218
-4.7735 ACCESSIBILITY -0.2218
-4.7735 ACCESSIBLE -0.2218
-4.7735 ACCESSING -0.2218
-4.7735 ACCESSORIES -0.2218
-4.7735 ACCESSORY -0.2218
-4.7735 ACCIDENT -0.2218
-4.7735 ACCIDENTS -0.2218
-4.7735 ACCOMMODATE -0.2218
-4.7735 ACCOMMODATION -0.2218
-4.7735 ACCOMMODATIONS -0.2218
-4.7735 ACCOMPANIED -0.2218
-4.7735 ACCOMPANYING -0.2218
-4.7735 ACCOMPLISH -0.2218
-4.7735 ACCOMPLISHED -0.2218
-4.7735 ACCORDANCE -0.2218
-4.7735 ACCORDING -0.2218
-4.7735 ACCORDINGLY -0.2218
-4.7735 ACCOUNT -0.2218
-4.7735 ACCOUNTABILITY -0.2218
-4.7735 ACCOUNTING -0.2218
-4.7735 ACCOUNTS -0.2218
-4.7735 ACCREDITATION -0.2218
-4.7735 ACCREDITED -0.2218
-4.7735 ACCURACY -0.2218
-4.7735 ACCURATE -0.2218
-4.7735 ACCURATELY -0.2218
-4.7735 ACCUSED -0.2218
-4.7735 ACDBENTITY -0.2218
-4.7735 ACE -0.2218
-4.7735 ACER -0.2218
-4.7735 ACHIEVE -0.2218
-4.7735 ACHIEVED -0.2218
-4.7735 ACHIEVEMENT -0.2218
-4.7735 ACHIEVEMENTS -0.2218
-4.7735 ACHIEVING -0.2218
-4.7735 ACID -0.2218
-4.7735 ACIDS -0.2218
-4.7735 ACKNOWLEDGE -0.2218
-4.7735 ACKNOWLEDGED -0.2218
-4.7735 ACM -0.2218
-4.7735 ACNE -0.2218
-4.7735 ACOUSTIC -0.2218
-4.7735 ACQUIRE -0.2218
-4.7735 ACQUIRED -0.2218
-4.7735 ACQUISITION -0.2218
-4.7735 ACQUISITIONS -0.2218
-4.7735 ACRE -0.2218
-4.7735 ACRES -0.2218
-4.7735 ACROBAT -0.2218
-4.7735 ACROSS -0.2218
-4.7735 ACRYLIC -0.2218
-4.7735 ACT -0.2218
-4.7735 ACTING -0.2218
-4.7735 ACTION -0.2218
-4.7735 ACTIONS -0.2218
-4.7735 ACTIVATED -0.2218
-4.7735 ACTIVATION -0.2218
-4.7735 ACTIVE -0.2218
-4.7735 ACTIVELY -0.2218
-4.7735 ACTIVISTS -0.2218
-4.7735 ACTIVITIES -0.2218
-4.7735 ACTIVITY -0.2218
-4.7735 ACTOR -0.2218
-4.7735 ACTORS -0.2218
-4.7735 ACTRESS -0.2218
-4.7735 ACTS -0.2218
-4.7735 ACTUAL -0.2218
-4.7735 ACTUALLY -0.2218
-4.7735 ACUTE -0.2218
-4.7735 AD -0.2218
-4.7735 ADA -0.2218
-4.7735 ADAM -0.2218
-4.7735 ADAMS -0.2218
-4.7735 ADAPTATION -0.2218
-4.7735 ADAPTED -0.2218
-4.7735 ADAPTER -0.2218
-4.7735 ADAPTERS -0.2218
-4.7735 ADAPTIVE -0.2218
-4.7735 ADAPTOR -0.2218
-4.7735 ADD -0.2218
-4.7735 ADDED -0.2218
-4.7735 ADDICTION -0.2218
-4.7735 ADDING -0.2218
-4.7735 ADDITION -0.2218
-4.7735 ADDITIONAL -0.2218
-4.7735 ADDITIONALLY -0.2218
-4.7735 ADDITIONS -0.2218
-4.7735 ADDRESS -0.2218
-4.7735 ADDRESSED -0.2218
-4.7735 ADDRESSES -0.2218
-4.7735 ADDRESSING -0.2218
-4.7735 ADDS -0.2218
-4.7735 ADELAIDE -0.2218
-4.7735 ADEQUATE -0.2218
-4.7735 ADIDAS -0.2218
-4.7735 ADIPEX -0.2218
-4.7735 ADJACENT -0.2218
-4.7735 ADJUST -0.2218
-4.7735 ADJUSTABLE -0.2218
-4.7735 ADJUSTED -0.2218
-4.7735 ADJUSTMENT -0.2218
-4.7735 ADJUSTMENTS -0.2218
-4.7735 ADMIN -0.2218
-4.7735 ADMINISTERED -0.2218
-4.7735 ADMINISTRATION -0.2218
-4.7735 ADMINISTRATIVE -0.2218
-4.7735 ADMINISTRATOR -0.2218
-4.7735 ADMINISTRATORS -0.2218
-4.7735 ADMISSION -0.2218
-4.7735 ADMISSIONS -0.2218
-4.7735 ADMIT -0.2218
-4.7735 ADMITTED -0.2218
-4.7735 ADOBE -0.2218
-4.7735 ADOLESCENT -0.2218
-4.7735 ADOPT -0.2218
-4.7735 ADOPTED -0.2218
-4.7735 ADOPTION -0.2218
-4.7735 ADRIAN -0.2218
-4.7735 ADS -0.2218
-4.7735 ADSL -0.2218
-4.7735 ADULT -0.2218
-4.7735 ADULTS -0.2218
-4.7735 ADVANCE -0.2218
-4.7735 ADVANCED -0.2218
-4.7735 ADVANCEMENT -0.2218
-4.7735 ADVANCES -0.2218
-4.7735 ADVANTAGE -0.2218
-4.7735 ADVANTAGES -0.2218
-4.7735 ADVENTURE -0.2218
-4.7735 ADVENTURES -0.2218
-4.7735 ADVERSE -0.2218
-4.7735 ADVERT -0.2218
-4.7735 ADVERTISE -0.2218
-4.7735 ADVERTISEMENT -0.2218
-4.7735 ADVERTISEMENTS -0.2218
-4.7735 ADVERTISER -0.2218
-4.7735 ADVERTISERS -0.2218
-4.7735 ADVERTISING -0.2218
-4.7735 ADVICE -0.2218
-4.7735 ADVISE -0.2218
-4.7735 ADVISED -0.2218
-4.7735 ADVISOR -0.2218
-4.7735 ADVISORS -0.2218
-4.7735 ADVISORY -0.2218
-4.7735 ADVOCACY -0.2218
-4.7735 ADVOCATE -0.2218
-4.7735 ADWARE -0.2218
-4.7735 AE -0.2218
-4.7735 AERIAL -0.2218
-4.7735 AEROSPACE -0.2218
-4.7735 AF -0.2218
-4.7735 AFFAIR -0.2218
-4.7735 AFFAIRS -0.2218
-4.7735 AFFECT -0.2218
-4.7735 AFFECTED -0.2218
-4.7735 AFFECTING -0.2218
-4.7735 AFFECTS -0.2218
-4.7735 AFFILIATE -0.2218
-4.7735 AFFILIATED -0.2218
-4.7735 AFFILIATES -0.2218
-4.7735 AFFILIATION -0.2218
-4.7735 AFFORD -0.2218
-4.7735 AFFORDABLE -0.2218
-4.7735 AFGHANISTAN -0.2218
-4.7735 AFRAID -0.2218
-4.7735 AFRICA -0.2218
-4.7735 AFRICAN -0.2218
-4.7735 AFTER -0.2218
-4.7735 AFTERNOON -0.2218
-4.7735 AFTERWARDS -0.2218
-4.7735 AG -0.2218
-4.7735 AGAIN -0.2218
-4.7735 AGAINST -0.2218
-4.7735 AGE -0.2218
-4.7735 AGED -0.2218
-4.7735 AGENCIES -0.2218
-4.7735 AGENCY -0.2218
-4.7735 AGENDA -0.2218
-4.7735 AGENT -0.2218
-4.7735 AGENTS -0.2218
-4.7735 AGES -0.2218
-4.7735 AGGREGATE -0.2218
-4.7735 AGGRESSIVE -0.2218
-4.7735 AGING -0.2218
-4.7735 AGO -0.2218
-4.7735 AGREE -0.2218
-4.7735 AGREED -0.2218
-4.7735 AGREEMENT -0.2218
-4.7735 AGREEMENTS -0.2218
-4.7735 AGREES -0.2218
-4.7735 AGRICULTURAL -0.2218
-4.7735 AGRICULTURE -0.2218
-4.7735 AH -0.2218
-4.7735 AHEAD -0.2218
-4.7735 AI -0.2218
-4.7735 AID -0.2218
-4.7735 AIDS -0.2218
-4.7735 AIM -0.2218
-4.7735 AIMED -0.2218
-4.7735 AIMS -0.2218
-4.7735 AIR -0.2218
-4.7735 AIRCRAFT -0.2218
-4.7735 AIRFARE -0.2218
-4.7735 AIRLINE -0.2218
-4.7735 AIRLINES -0.2218
-4.7735 AIRPLANE -0.2218
-4.7735 AIRPORT -0.2218
-4.7735 AIRPORTS -0.2218
-4.7735 AJ -0.2218
-4.7735 AK -0.2218
-4.7735 AKA -0.2218
-4.7735 AL -0.2218
-4.7735 ALA -0.2218
-4.7735 ALABAMA -0.2218
-4.7735 ALAN -0.2218
-4.7735 ALARM -0.2218
-4.7735 ALASKA -0.2218
-4.7735 ALBANIA -0.2218
-4.7735 ALBANY -0.2218
-4.7735 ALBERT -0.2218
-4.7735 ALBERTA -0.2218
-4.7735 ALBUM -0.2218
-4.7735 ALBUMS -0.2218
-4.7735 ALBUQUERQUE -0.2218
-4.7735 ALCOHOL -0.2218
-4.7735 ALERT -0.2218
-4.7735 ALERTS -0.2218
-4.7735 ALEX -0.2218
-4.7735 ALEXANDER -0.2218
-4.7735 ALEXANDRIA -0.2218
-4.7735 ALFRED -0.2218
-4.7735 ALGEBRA -0.2218
-4.7735 ALGERIA -0.2218
-4.7735 ALGORITHM -0.2218
-4.7735 ALGORITHMS -0.2218
-4.7735 ALI -0.2218
-4.7735 ALIAS -0.2218
-4.7735 ALICE -0.2218
-4.7735 ALIEN -0.2218
-4.7735 ALIGN -0.2218
-4.7735 ALIGNMENT -0.2218
-4.7735 ALIKE -0.2218
-4.7735 ALIVE -0.2218
-4.7735 ALL -0.2218
-4.7735 ALLAH -0.2218
-4.7735 ALLAN -0.2218
-4.7735 ALLEGED -0.2218
-4.7735 ALLEN -0.2218
-4.7735 ALLERGY -0.2218
-4.7735 ALLIANCE -0.2218
-4.7735 ALLIED -0.2218
-4.7735 ALLOCATED -0.2218
-4.7735 ALLOCATION -0.2218
-4.7735 ALLOW -0.2218
-4.7735 ALLOWANCE -0.2218
-4.7735 ALLOWED -0.2218
-4.7735 ALLOWING -0.2218
-4.7735 ALLOWS -0.2218
-4.7735 ALLOY -0.2218
-4.7735 ALMOST -0.2218
-4.7735 ALONE -0.2218
-4.7735 ALONG -0.2218
-4.7735 ALOT -0.2218
-4.7735 ALPHA -0.2218
-4.7735 ALPHABETICAL -0.2218
-4.7735 ALPINE -0.2218
-4.7735 ALREADY -0.2218
-4.7735 ALSO -0.2218
-4.7735 ALT -0.2218
-4.7735 ALTER -0.2218
-4.7735 ALTERED -0.2218
-4.7735 ALTERNATE -0.2218
-4.7735 ALTERNATIVE -0.2218
-4.7735 ALTERNATIVELY -0.2218
-4.7735 ALTERNATIVES -0.2218
-4.7735 ALTHOUGH -0.2218
-4.7735 ALTO -0.2218
-4.7735 ALUMINIUM -0.2218
-4.7735 ALUMINUM -0.2218
-4.7735 ALUMNI -0.2218
-4.7735 ALWAYS -0.2218
-4.7735 AM -0.2218
-4.7735 AMANDA -0.2218
-4.7735 AMATEUR -0.2218
-4.7735 AMAZING -0.2218
-4.7735 AMAZON -0.2218
-4.7735 AMBASSADOR -0.2218
-4.7735 AMBER -0.2218
-4.7735 AMBIEN -0.2218
-4.7735 AMBIENT -0.2218
-4.7735 AMD -0.2218
-4.7735 AMEND -0.2218
-4.7735 AMENDED -0.2218
-4.7735 AMENDMENT -0.2218
-4.7735 AMENDMENTS -0.2218
-4.7735 AMENITIES -0.2218
-4.7735 AMERICA -0.2218
-4.7735 AMERICAN -0.2218
-4.7735 AMERICANS -0.2218
-4.7735 AMERICAS -0.2218
-4.7735 AMINO -0.2218
-4.7735 AMONG -0.2218
-4.7735 AMONGST -0.2218
-4.7735 AMOUNT -0.2218
-4.7735 AMOUNTS -0.2218
-4.7735 AMP -0.2218
-4.7735 AMPLAND -0.2218
-4.7735 AMPLIFIER -0.2218
-4.7735 AMSTERDAM -0.2218
-4.7735 AMY -0.2218
-4.7735 AN -0.2218
-4.7735 ANA -0.2218
-4.7735 ANAHEIM -0.2218
-4.7735 ANALOG -0.2218
-4.7735 ANALYSES -0.2218
-4.7735 ANALYSIS -0.2218
-4.7735 ANALYST -0.2218
-4.7735 ANALYSTS -0.2218
-4.7735 ANALYTICAL -0.2218
-4.7735 ANALYZE -0.2218
-4.7735 ANALYZED -0.2218
-4.7735 ANATOMY -0.2218
-4.7735 ANCHOR -0.2218
-4.7735 ANCIENT -0.2218
-4.7735 AND -0.2218
-4.7735 ANDALE -0.2218
-4.7735 ANDERSON -0.2218
-4.7735 ANDORRA -0.2218
-4.7735 ANDREA -0.2218
-4.7735 ANDREAS -0.2218
-4.7735 ANDREW -0.2218
-4.7735 ANDREWS -0.2218
-4.7735 ANDY -0.2218
-4.7735 ANGEL -0.2218
-4.7735 ANGELA -0.2218
-4.7735 ANGELES -0.2218
-4.7735 ANGELS -0.2218
-4.7735 ANGER -0.2218
-4.7735 ANGLE -0.2218
-4.7735 ANGOLA -0.2218
-4.7735 ANGRY -0.2218
-4.7735 ANIMAL -0.2218
-4.7735 ANIMALS -0.2218
-4.7735 ANIMATED -0.2218
-4.7735 ANIMATION -0.2218
-4.7735 ANIME -0.2218
-4.7735 ANN -0.2218
-4.7735 ANNA -0.2218
-4.7735 ANNE -0.2218
-4.7735 ANNEX -0.2218
-4.7735 ANNIE -0.2218
-4.7735 ANNIVERSARY -0.2218
-4.7735 ANNOTATED -0.2218
-4.7735 ANNOTATION -0.2218
-4.7735 ANNOUNCE -0.2218
-4.7735 ANNOUNCED -0.2218
-4.7735 ANNOUNCEMENT -0.2218
-4.7735 ANNOUNCEMENTS -0.2218
-4.7735 ANNOUNCES -0.2218
-4.7735 ANNOYING -0.2218
-4.7735 ANNUAL -0.2218
-4.7735 ANNUALLY -0.2218
-4.7735 ANONYMOUS -0.2218
-4.7735 ANOTHER -0.2218
-4.7735 ANSWER -0.2218
-4.7735 ANSWERED -0.2218
-4.7735 ANSWERING -0.2218
-4.7735 ANSWERS -0.2218
-4.7735 ANT -0.2218
-4.7735 ANTARCTICA -0.2218
-4.7735 ANTENNA -0.2218
-4.7735 ANTHONY -0.2218
-4.7735 ANTHROPOLOGY -0.2218
-4.7735 ANTI -0.2218
-4.7735 ANTIBODIES -0.2218
-4.7735 ANTIBODY -0.2218
-4.7735 ANTICIPATED -0.2218
-4.7735 ANTIGUA -0.2218
-4.7735 ANTIQUE -0.2218
-4.7735 ANTIQUES -0.2218
-4.7735 ANTIVIRUS -0.2218
-4.7735 ANTONIO -0.2218
-4.7735 ANXIETY -0.2218
-4.7735 ANY -0.2218
-4.7735 ANYBODY -0.2218
-4.7735 ANYMORE -0.2218
-4.7735 ANYONE -0.2218
-4.7735 ANYTHING -0.2218
-4.7735 ANYTIME -0.2218
-4.7735 ANYWAY -0.2218
-4.7735 ANYWHERE -0.2218
-4.7735 AOL -0.2218
-4.7735 AP -0.2218
-4.7735 APACHE -0.2218
-4.7735 APART -0.2218
-4.7735 APARTMENT -0.2218
-4.7735 APARTMENTS -0.2218
-4.7735 API -0.2218
-4.7735 APNIC -0.2218
-4.7735 APOLLO -0.2218
-4.7735 APP -0.2218
-4.7735 APPARATUS -0.2218
-4.7735 APPAREL -0.2218
-4.7735 APPARENT -0.2218
-4.7735 APPARENTLY -0.2218
-4.7735 APPEAL -0.2218
-4.7735 APPEALS -0.2218
-4.7735 APPEAR -0.2218
-4.7735 APPEARANCE -0.2218
-4.7735 APPEARED -0.2218
-4.7735 APPEARING -0.2218
-4.7735 APPEARS -0.2218
-4.7735 APPENDIX -0.2218
-4.7735 APPLE -0.2218
-4.7735 APPLIANCE -0.2218
-4.7735 APPLIANCES -0.2218
-4.7735 APPLICABLE -0.2218
-4.7735 APPLICANT -0.2218
-4.7735 APPLICANTS -0.2218
-4.7735 APPLICATION -0.2218
-4.7735 APPLICATIONS -0.2218
-4.7735 APPLIED -0.2218
-4.7735 APPLIES -0.2218
-4.7735 APPLY -0.2218
-4.7735 APPLYING -0.2218
-4.7735 APPOINTED -0.2218
-4.7735 APPOINTMENT -0.2218
-4.7735 APPOINTMENTS -0.2218
-4.7735 APPRAISAL -0.2218
-4.7735 APPRECIATE -0.2218
-4.7735 APPRECIATED -0.2218
-4.7735 APPRECIATION -0.2218
-4.7735 APPROACH -0.2218
-4.7735 APPROACHES -0.2218
-4.7735 APPROPRIATE -0.2218
-4.7735 APPROPRIATIONS -0.2218
-4.7735 APPROVAL -0.2218
-4.7735 APPROVE -0.2218
-4.7735 APPROVED -0.2218
-4.7735 APPROX -0.2218
-4.7735 APPROXIMATE -0.2218
-4.7735 APPROXIMATELY -0.2218
-4.7735 APPS -0.2218
-4.7735 APR -0.2218
-4.7735 APRIL -0.2218
-4.7735 APT -0.2218
-4.7735 AQUA -0.2218
-4.7735 AQUARIUM -0.2218
-4.7735 AQUATIC -0.2218
-4.7735 AR -0.2218
-4.7735 ARAB -0.2218
-4.7735 ARABIA -0.2218
-4.7735 ARABIC -0.2218
-4.7735 ARBITRARY -0.2218
-4.7735 ARBITRATION -0.2218
-4.7735 ARBOR -0.2218
-4.7735 ARC -0.2218
-4.7735 ARCADE -0.2218
-4.7735 ARCH -0.2218
-4.7735 ARCHITECT -0.2218
-4.7735 ARCHITECTS -0.2218
-4.7735 ARCHITECTURAL -0.2218
-4.7735 ARCHITECTURE -0.2218
-4.7735 ARCHIVE -0.2218
-4.7735 ARCHIVED -0.2218
-4.7735 ARCHIVES -0.2218
-4.7735 ARCTIC -0.2218
-4.7735 ARE -0.2218
-4.7735 AREA -0.2218
-4.7735 AREAS -0.2218
-4.7735 ARENA -0.2218
-4.7735 ARG -0.2218
-4.7735 ARGENTINA -0.2218
-4.7735 ARGUE -0.2218
-4.7735 ARGUED -0.2218
-4.7735 ARGUMENT -0.2218
-4.7735 ARGUMENTS -0.2218
-4.7735 ARISE -0.2218
-4.7735 ARISING -0.2218
-4.7735 ARIZONA -0.2218
-4.7735 ARKANSAS -0.2218
-4.7735 ARLINGTON -0.2218
-4.7735 ARM -0.2218
-4.7735 ARMED -0.2218
-4.7735 ARMENIA -0.2218
-4.7735 ARMOR -0.2218
-4.7735 ARMS -0.2218
-4.7735 ARMSTRONG -0.2218
-4.7735 ARMY -0.2218
-4.7735 ARNOLD -0.2218
-4.7735 AROUND -0.2218
-4.7735 ARRANGE -0.2218
-4.7735 ARRANGED -0.2218
-4.7735 ARRANGEMENT -0.2218
-4.7735 ARRANGEMENTS -0.2218
-4.7735 ARRAY -0.2218
-4.7735 ARREST -0.2218
-4.7735 ARRESTED -0.2218
-4.7735 ARRIVAL -0.2218
-4.7735 ARRIVALS -0.2218
-4.7735 ARRIVE -0.2218
-4.7735 ARRIVED -0.2218
-4.7735 ARRIVES -0.2218
-4.7735 ARROW -0.2218
-4.7735 ART -0.2218
-4.7735 ARTHRITIS -0.2218
-4.7735 ARTHUR -0.2218
-4.7735 ARTICLE -0.2218
-4.7735 ARTICLES -0.2218
-4.7735 ARTIFICIAL -0.2218
-4.7735 ARTIST -0.2218
-4.7735 ARTISTIC -0.2218
-4.7735 ARTISTS -0.2218
-4.7735 ARTS -0.2218
-4.7735 ARTWORK -0.2218
-4.7735 ARUBA -0.2218
-4.7735 AS -0.2218
-4.7735 ASBESTOS -0.2218
-4.7735 ASCII -0.2218
-4.7735 ASH -0.2218
-4.7735 ASHLEY -0.2218
-4.7735 ASIA -0.2218
-4.7735 ASIAN -0.2218
-4.7735 ASIDE -0.2218
-4.7735 ASIN -0.2218
-4.7735 ASK -0.2218
-4.7735 ASKED -0.2218
-4.7735 ASKING -0.2218
-4.7735 ASKS -0.2218
-4.7735 ASN -0.2218
-4.7735 ASP -0.2218
-4.7735 ASPECT -0.2218
-4.7735 ASPECTS -0.2218
-4.7735 ASSAULT -0.2218
-4.7735 ASSEMBLED -0.2218
-4.7735 ASSEMBLY -0.2218
-4.7735 ASSESS -0.2218
-4.7735 ASSESSED -0.2218
-4.7735 ASSESSING -0.2218
-4.7735 ASSESSMENT -0.2218
-4.7735 ASSESSMENTS -0.2218
-4.7735 ASSET -0.2218
-4.7735 ASSETS -0.2218
-4.7735 ASSIGN -0.2218
-4.7735 ASSIGNED -0.2218
-4.7735 ASSIGNMENT -0.2218
-4.7735 ASSIGNMENTS -0.2218
-4.7735 ASSIST -0.2218
-4.7735 ASSISTANCE -0.2218
-4.7735 ASSISTANT -0.2218
-4.7735 ASSISTED -0.2218
-4.7735 ASSISTS -0.2218
-4.7735 ASSOCIATE -0.2218
-4.7735 ASSOCIATED -0.2218
-4.7735 ASSOCIATES -0.2218
-4.7735 ASSOCIATION -0.2218
-4.7735 ASSOCIATIONS -0.2218
-4.7735 ASSUME -0.2218
-4.7735 ASSUMED -0.2218
-4.7735 ASSUMES -0.2218
-4.7735 ASSUMING -0.2218
-4.7735 ASSUMPTION -0.2218
-4.7735 ASSUMPTIONS -0.2218
-4.7735 ASSURANCE -0.2218
-4.7735 ASSURE -0.2218
-4.7735 ASSURED -0.2218
-4.7735 ASTHMA -0.2218
-4.7735 ASTROLOGY -0.2218
-4.7735 ASTRONOMY -0.2218
-4.7735 ASUS -0.2218
-4.7735 ASYLUM -0.2218
-4.7735 AT -0.2218
-4.7735 ATA -0.2218
-4.7735 ATE -0.2218
-4.7735 ATHENS -0.2218
-4.7735 ATHLETES -0.2218
-4.7735 ATHLETIC -0.2218
-4.7735 ATHLETICS -0.2218
-4.7735 ATI -0.2218
-4.7735 ATLANTA -0.2218
-4.7735 ATLANTIC -0.2218
-4.7735 ATLAS -0.2218
-4.7735 ATM -0.2218
-4.7735 ATMOSPHERE -0.2218
-4.7735 ATMOSPHERIC -0.2218
-4.7735 ATOM -0.2218
-4.7735 ATOMIC -0.2218
-4.7735 ATTACH -0.2218
-4.7735 ATTACHED -0.2218
-4.7735 ATTACHMENT -0.2218
-4.7735 ATTACHMENTS -0.2218
-4.7735 ATTACK -0.2218
-4.7735 ATTACKED -0.2218
-4.7735 ATTACKS -0.2218
-4.7735 ATTEMPT -0.2218
-4.7735 ATTEMPTED -0.2218
-4.7735 ATTEMPTING -0.2218
-4.7735 ATTEMPTS -0.2218
-4.7735 ATTEND -0.2218
-4.7735 ATTENDANCE -0.2218
-4.7735 ATTENDED -0.2218
-4.7735 ATTENDING -0.2218
-4.7735 ATTENTION -0.2218
-4.7735 ATTITUDE -0.2218
-4.7735 ATTITUDES -0.2218
-4.7735 ATTORNEY -0.2218
-4.7735 ATTORNEYS -0.2218
-4.7735 ATTRACT -0.2218
-4.7735 ATTRACTION -0.2218
-4.7735 ATTRACTIONS -0.2218
-4.7735 ATTRACTIVE -0.2218
-4.7735 ATTRIBUTE -0.2218
-4.7735 ATTRIBUTES -0.2218
-4.7735 AU -0.2218
-4.7735 AUBURN -0.2218
-4.7735 AUCKLAND -0.2218
-4.7735 AUCTION -0.2218
-4.7735 AUCTIONS -0.2218
-4.7735 AUD -0.2218
-4.7735 AUDI -0.2218
-4.7735 AUDIENCE -0.2218
-4.7735 AUDIO -0.2218
-4.7735 AUDIT -0.2218
-4.7735 AUDITOR -0.2218
-4.7735 AUG -0.2218
-4.7735 AUGUST -0.2218
-4.7735 AURORA -0.2218
-4.7735 AUS -0.2218
-4.7735 AUSTIN -0.2218
-4.7735 AUSTRALIA -0.2218
-4.7735 AUSTRALIAN -0.2218
-4.7735 AUSTRIA -0.2218
-4.7735 AUTHENTIC -0.2218
-4.7735 AUTHENTICATION -0.2218
-4.7735 AUTHOR -0.2218
-4.7735 AUTHORITIES -0.2218
-4.7735 AUTHORITY -0.2218
-4.7735 AUTHORIZATION -0.2218
-4.7735 AUTHORIZED -0.2218
-4.7735 AUTHORS -0.2218
-4.7735 AUTO -0.2218
-4.7735 AUTOMATED -0.2218
-4.7735 AUTOMATIC -0.2218
-4.7735 AUTOMATICALLY -0.2218
-4.7735 AUTOMATION -0.2218
-4.7735 AUTOMOBILE -0.2218
-4.7735 AUTOMOBILES -0.2218
-4.7735 AUTOMOTIVE -0.2218
-4.7735 AUTOS -0.2218
-4.7735 AUTUMN -0.2218
-4.7735 AV -0.2218
-4.7735 AVAILABILITY -0.2218
-4.7735 AVAILABLE -0.2218
-4.7735 AVATAR -0.2218
-4.7735 AVE -0.2218
-4.7735 AVENUE -0.2218
-4.7735 AVERAGE -0.2218
-4.7735 AVG -0.2218
-4.7735 AVI -0.2218
-4.7735 AVIATION -0.2218
-4.7735 AVOID -0.2218
-4.7735 AVOIDING -0.2218
-4.7735 AVON -0.2218
-4.7735 AW -0.2218
-4.7735 AWARD -0.2218
-4.7735 AWARDED -0.2218
-4.7735 AWARDS -0.2218
-4.7735 AWARE -0.2218
-4.7735 AWARENESS -0.2218
-4.7735 AWAY -0.2218
-4.7735 AWESOME -0.2218
-4.7735 AWFUL -0.2218
-4.7735 AXIS -0.2218
-4.7735 AYE -0.2218
-4.7735 AZ -0.2218
-4.7735 AZERBAIJAN -0.2218
-4.7735 B -0.2218
-4.7735 BA -0.2218
-4.7735 BABE -0.2218
-4.7735 BABES -0.2218
-4.7735 BABIES -0.2218
-4.7735 BABY -0.2218
-4.7735 BACHELOR -0.2218
-4.7735 BACK -0.2218
-4.7735 BACKED -0.2218
-4.7735 BACKGROUND -0.2218
-4.7735 BACKGROUNDS -0.2218
-4.7735 BACKING -0.2218
-4.7735 BACKUP -0.2218
-4.7735 BACON -0.2218
-4.7735 BACTERIA -0.2218
-4.7735 BACTERIAL -0.2218
-4.7735 BAD -0.2218
-4.7735 BADGE -0.2218
-4.7735 BADLY -0.2218
-4.7735 BAG -0.2218
-4.7735 BAGHDAD -0.2218
-4.7735 BAGS -0.2218
-4.7735 BAHAMAS -0.2218
-4.7735 BAHRAIN -0.2218
-4.7735 BAILEY -0.2218
-4.7735 BAKER -0.2218
-4.7735 BAKING -0.2218
-4.7735 BALANCE -0.2218
-4.7735 BALANCED -0.2218
-4.7735 BALD -0.2218
-4.7735 BALI -0.2218
-4.7735 BALL -0.2218
-4.7735 BALLET -0.2218
-4.7735 BALLOON -0.2218
-4.7735 BALLOT -0.2218
-4.7735 BALTIMORE -0.2218
-4.7735 BAN -0.2218
-4.7735 BANANA -0.2218
-4.7735 BAND -0.2218
-4.7735 BANDS -0.2218
-4.7735 BANDWIDTH -0.2218
-4.7735 BANG -0.2218
-4.7735 BANGKOK -0.2218
-4.7735 BANGLADESH -0.2218
-4.7735 BANK -0.2218
-4.7735 BANKING -0.2218
-4.7735 BANKRUPTCY -0.2218
-4.7735 BANKS -0.2218
-4.7735 BANNED -0.2218
-4.7735 BANNER -0.2218
-4.7735 BANNERS -0.2218
-4.7735 BAPTIST -0.2218
-4.7735 BAR -0.2218
-4.7735 BARBADOS -0.2218
-4.7735 BARBARA -0.2218
-4.7735 BARBIE -0.2218
-4.7735 BARCELONA -0.2218
-4.7735 BARE -0.2218
-4.7735 BARELY -0.2218
-4.7735 BARGAIN -0.2218
-4.7735 BARGAINS -0.2218
-4.7735 BARN -0.2218
-4.7735 BARNES -0.2218
-4.7735 BARREL -0.2218
-4.7735 BARRIER -0.2218
-4.7735 BARRIERS -0.2218
-4.7735 BARRY -0.2218
-4.7735 BARS -0.2218
-4.7735 BASE -0.2218
-4.7735 BASEBALL -0.2218
-4.7735 BASED -0.2218
-4.7735 BASELINE -0.2218
-4.7735 BASEMENT -0.2218
-4.7735 BASENAME -0.2218
-4.7735 BASES -0.2218
-4.7735 BASIC -0.2218
-4.7735 BASICALLY -0.2218
-4.7735 BASICS -0.2218
-4.7735 BASIN -0.2218
-4.7735 BASIS -0.2218
-4.7735 BASKET -0.2218
-4.7735 BASKETBALL -0.2218
-4.7735 BASKETS -0.2218
-4.7735 BASS -0.2218
-4.7735 BAT -0.2218
-4.7735 BATCH -0.2218
-4.7735 BATH -0.2218
-4.7735 BATHROOM -0.2218
-4.7735 BATHROOMS -0.2218
-4.7735 BATHS -0.2218
-4.7735 BATMAN -0.2218
-4.7735 BATTERIES -0.2218
-4.7735 BATTERY -0.2218
-4.7735 BATTLE -0.2218
-4.7735 BATTLEFIELD -0.2218
-4.7735 BAY -0.2218
-4.7735 BB -0.2218
-4.7735 BBC -0.2218
-4.7735 BBS -0.2218
-4.7735 BC -0.2218
-4.7735 BD -0.2218
-4.7735 BE -0.2218
-4.7735 BEACH -0.2218
-4.7735 BEACHES -0.2218
-4.7735 BEADS -0.2218
-4.7735 BEAM -0.2218
-4.7735 BEAN -0.2218
-4.7735 BEANS -0.2218
-4.7735 BEAR -0.2218
-4.7735 BEARING -0.2218
-4.7735 BEARS -0.2218
-4.7735 BEAST -0.2218
-4.7735 BEASTALITY -0.2218
-4.7735 BEAT -0.2218
-4.7735 BEATLES -0.2218
-4.7735 BEATS -0.2218
-4.7735 BEAUTIFUL -0.2218
-4.7735 BEAUTIFULLY -0.2218
-4.7735 BEAUTY -0.2218
-4.7735 BEAVER -0.2218
-4.7735 BECAME -0.2218
-4.7735 BECAUSE -0.2218
-4.7735 BECOME -0.2218
-4.7735 BECOMES -0.2218
-4.7735 BECOMING -0.2218
-4.7735 BED -0.2218
-4.7735 BEDDING -0.2218
-4.7735 BEDFORD -0.2218
-4.7735 BEDROOM -0.2218
-4.7735 BEDROOMS -0.2218
-4.7735 BEDS -0.2218
-4.7735 BEE -0.2218
-4.7735 BEEF -0.2218
-4.7735 BEEN -0.2218
-4.7735 BEER -0.2218
-4.7735 BEFORE -0.2218
-4.7735 BEGAN -0.2218
-4.7735 BEGIN -0.2218
-4.7735 BEGINNER -0.2218
-4.7735 BEGINNERS -0.2218
-4.7735 BEGINNING -0.2218
-4.7735 BEGINS -0.2218
-4.7735 BEGUN -0.2218
-4.7735 BEHALF -0.2218
-4.7735 BEHAVIOR -0.2218
-4.7735 BEHAVIORAL -0.2218
-4.7735 BEHAVIOUR -0.2218
-4.7735 BEHIND -0.2218
-4.7735 BEIJING -0.2218
-4.7735 BEING -0.2218
-4.7735 BEINGS -0.2218
-4.7735 BELARUS -0.2218
-4.7735 BELFAST -0.2218
-4.7735 BELGIUM -0.2218
-4.7735 BELIEF -0.2218
-4.7735 BELIEFS -0.2218
-4.7735 BELIEVE -0.2218
-4.7735 BELIEVED -0.2218
-4.7735 BELIEVES -0.2218
-4.7735 BELIZE -0.2218
-4.7735 BELKIN -0.2218
-4.7735 BELL -0.2218
-4.7735 BELLE -0.2218
-4.7735 BELLY -0.2218
-4.7735 BELONG -0.2218
-4.7735 BELONGS -0.2218
-4.7735 BELOW -0.2218
-4.7735 BELT -0.2218
-4.7735 BELTS -0.2218
-4.7735 BEN -0.2218
-4.7735 BENCH -0.2218
-4.7735 BENCHMARK -0.2218
-4.7735 BEND -0.2218
-4.7735 BENEATH -0.2218
-4.7735 BENEFICIAL -0.2218
-4.7735 BENEFIT -0.2218
-4.7735 BENEFITS -0.2218
-4.7735 BENJAMIN -0.2218
-4.7735 BENNETT -0.2218
-4.7735 BENT -0.2218
-4.7735 BENZ -0.2218
-4.7735 BERKELEY -0.2218
-4.7735 BERLIN -0.2218
-4.7735 BERMUDA -0.2218
-4.7735 BERNARD -0.2218
-4.7735 BERRY -0.2218
-4.7735 BESIDE -0.2218
-4.7735 BESIDES -0.2218
-4.7735 BEST -0.2218
-4.7735 BESTSELLERS -0.2218
-4.7735 BET -0.2218
-4.7735 BETA -0.2218
-4.7735 BETH -0.2218
-4.7735 BETTER -0.2218
-4.7735 BETTING -0.2218
-4.7735 BETTY -0.2218
-4.7735 BETWEEN -0.2218
-4.7735 BEVERAGE -0.2218
-4.7735 BEVERAGES -0.2218
-4.7735 BEVERLY -0.2218
-4.7735 BEYOND -0.2218
-4.7735 BG -0.2218
-4.7735 BHUTAN -0.2218
-4.7735 BI -0.2218
-4.7735 BIAS -0.2218
-4.7735 BIBLE -0.2218
-4.7735 BIBLICAL -0.2218
-4.7735 BIBLIOGRAPHIC -0.2218
-4.7735 BIBLIOGRAPHY -0.2218
-4.7735 BICYCLE -0.2218
-4.7735 BID -0.2218
-4.7735 BIDDER -0.2218
-4.7735 BIDDING -0.2218
-4.7735 BIDS -0.2218
-4.7735 BIG -0.2218
-4.7735 BIGGER -0.2218
-4.7735 BIGGEST -0.2218
-4.7735 BIKE -0.2218
-4.7735 BIKES -0.2218
-4.7735 BIKINI -0.2218
-4.7735 BILL -0.2218
-4.7735 BILLING -0.2218
-4.7735 BILLION -0.2218
-4.7735 BILLS -0.2218
-4.7735 BILLY -0.2218
-4.7735 BIN -0.2218
-4.7735 BINARY -0.2218
-4.7735 BIND -0.2218
-4.7735 BINDING -0.2218
-4.7735 BINGO -0.2218
-4.7735 BIO -0.2218
-4.7735 BIODIVERSITY -0.2218
-4.7735 BIOGRAPHIES -0.2218
-4.7735 BIOGRAPHY -0.2218
-4.7735 BIOL -0.2218
-4.7735 BIOLOGICAL -0.2218
-4.7735 BIOLOGY -0.2218
-4.7735 BIOS -0.2218
-4.7735 BIOTECHNOLOGY -0.2218
-4.7735 BIRD -0.2218
-4.7735 BIRDS -0.2218
-4.7735 BIRMINGHAM -0.2218
-4.7735 BIRTH -0.2218
-4.7735 BIRTHDAY -0.2218
-4.7735 BISHOP -0.2218
-4.7735 BIT -0.2218
-4.7735 BITE -0.2218
-4.7735 BITS -0.2218
-4.7735 BIZ -0.2218
-4.7735 BIZARRE -0.2218
-4.7735 BIZRATE -0.2218
-4.7735 BK -0.2218
-4.7735 BL -0.2218
-4.7735 BLACK -0.2218
-4.7735 BLACKBERRY -0.2218
-4.7735 BLACKJACK -0.2218
-4.7735 BLACKS -0.2218
-4.7735 BLADE -0.2218
-4.7735 BLADES -0.2218
-4.7735 BLAH -0.2218
-4.7735 BLAIR -0.2218
-4.7735 BLAKE -0.2218
-4.7735 BLAME -0.2218
-4.7735 BLANK -0.2218
-4.7735 BLANKET -0.2218
-4.7735 BLAST -0.2218
-4.7735 BLEEDING -0.2218
-4.7735 BLEND -0.2218
-4.7735 BLESS -0.2218
-4.7735 BLESSED -0.2218
-4.7735 BLIND -0.2218
-4.7735 BLINK -0.2218
-4.7735 BLOCK -0.2218
-4.7735 BLOCKED -0.2218
-4.7735 BLOCKING -0.2218
-4.7735 BLOCKS -0.2218
-4.7735 BLOG -0.2218
-4.7735 BLOGGER -0.2218
-4.7735 BLOGGERS -0.2218
-4.7735 BLOGGING -0.2218
-4.7735 BLOGS -0.2218
-4.7735 BLOND -0.2218
-4.7735 BLONDE -0.2218
-4.7735 BLOOD -0.2218
-4.7735 BLOOM -0.2218
-4.7735 BLOOMBERG -0.2218
-4.7735 BLOW -0.2218
-4.7735 BLOWING -0.2218
-4.7735 BLUE -0.2218
-4.7735 BLUES -0.2218
-4.7735 BLUETOOTH -0.2218
-4.7735 BLVD -0.2218
-4.7735 BM -0.2218
-4.7735 BMW -0.2218
-4.7735 BO -0.2218
-4.7735 BOARD -0.2218
-4.7735 BOARDS -0.2218
-4.7735 BOAT -0.2218
-4.7735 BOATING -0.2218
-4.7735 BOATS -0.2218
-4.7735 BOB -0.2218
-4.7735 BOBBY -0.2218
-4.7735 BOC -0.2218
-4.7735 BODIES -0.2218
-4.7735 BODY -0.2218
-4.7735 BOLD -0.2218
-4.7735 BOLIVIA -0.2218
-4.7735 BOLT -0.2218
-4.7735 BOMB -0.2218
-4.7735 BON -0.2218
-4.7735 BOND -0.2218
-4.7735 BONDS -0.2218
-4.7735 BONE -0.2218
-4.7735 BONES -0.2218
-4.7735 BONUS -0.2218
-4.7735 BOOK -0.2218
-4.7735 BOOKING -0.2218
-4.7735 BOOKINGS -0.2218
-4.7735 BOOKMARK -0.2218
-4.7735 BOOKMARKS -0.2218
-4.7735 BOOKS -0.2218
-4.7735 BOOKSTORE -0.2218
-4.7735 BOOL -0.2218
-4.7735 BOOLEAN -0.2218
-4.7735 BOOM -0.2218
-4.7735 BOOST -0.2218
-4.7735 BOOT -0.2218
-4.7735 BOOTH -0.2218
-4.7735 BOOTS -0.2218
-4.7735 BOOTY -0.2218
-4.7735 BORDER -0.2218
-4.7735 BORDERS -0.2218
-4.7735 BORED -0.2218
-4.7735 BORING -0.2218
-4.7735 BORN -0.2218
-4.7735 BOROUGH -0.2218
-4.7735 BOSNIA -0.2218
-4.7735 BOSS -0.2218
-4.7735 BOSTON -0.2218
-4.7735 BOTH -0.2218
-4.7735 BOTHER -0.2218
-4.7735 BOTSWANA -0.2218
-4.7735 BOTTLE -0.2218
-4.7735 BOTTLES -0.2218
-4.7735 BOTTOM -0.2218
-4.7735 BOUGHT -0.2218
-4.7735 BOULDER -0.2218
-4.7735 BOULEVARD -0.2218
-4.7735 BOUND -0.2218
-4.7735 BOUNDARIES -0.2218
-4.7735 BOUNDARY -0.2218
-4.7735 BOUQUET -0.2218
-4.7735 BOUTIQUE -0.2218
-4.7735 BOW -0.2218
-4.7735 BOWL -0.2218
-4.7735 BOWLING -0.2218
-4.7735 BOX -0.2218
-4.7735 BOXED -0.2218
-4.7735 BOXES -0.2218
-4.7735 BOXING -0.2218
-4.7735 BOY -0.2218
-4.7735 BOYS -0.2218
-4.7735 BP -0.2218
-4.7735 BR -0.2218
-4.7735 BRA -0.2218
-4.7735 BRACELET -0.2218
-4.7735 BRACELETS -0.2218
-4.7735 BRACKET -0.2218
-4.7735 BRAD -0.2218
-4.7735 BRADFORD -0.2218
-4.7735 BRADLEY -0.2218
-4.7735 BRAIN -0.2218
-4.7735 BRAKE -0.2218
-4.7735 BRAKES -0.2218
-4.7735 BRANCH -0.2218
-4.7735 BRANCHES -0.2218
-4.7735 BRAND -0.2218
-4.7735 BRANDON -0.2218
-4.7735 BRANDS -0.2218
-4.7735 BRAS -0.2218
-4.7735 BRASS -0.2218
-4.7735 BRAVE -0.2218
-4.7735 BRAZIL -0.2218
-4.7735 BRAZILIAN -0.2218
-4.7735 BREACH -0.2218
-4.7735 BREAD -0.2218
-4.7735 BREAK -0.2218
-4.7735 BREAKDOWN -0.2218
-4.7735 BREAKFAST -0.2218
-4.7735 BREAKING -0.2218
-4.7735 BREAKS -0.2218
-4.7735 BREAST -0.2218
-4.7735 BREATH -0.2218
-4.7735 BREATHING -0.2218
-4.7735 BREED -0.2218
-4.7735 BREEDING -0.2218
-4.7735 BREEDS -0.2218
-4.7735 BRIAN -0.2218
-4.7735 BRICK -0.2218
-4.7735 BRIDAL -0.2218
-4.7735 BRIDE -0.2218
-4.7735 BRIDGE -0.2218
-4.7735 BRIDGES -0.2218
-4.7735 BRIEF -0.2218
-4.7735 BRIEFING -0.2218
-4.7735 BRIEFLY -0.2218
-4.7735 BRIEFS -0.2218
-4.7735 BRIGHT -0.2218
-4.7735 BRIGHTON -0.2218
-4.7735 BRILLIANT -0.2218
-4.7735 BRING -0.2218
-4.7735 BRINGING -0.2218
-4.7735 BRINGS -0.2218
-4.7735 BRISBANE -0.2218
-4.7735 BRISTOL -0.2218
-4.7735 BRITAIN -0.2218
-4.7735 BRITANNICA -0.2218
-4.7735 BRITISH -0.2218
-4.7735 BRITNEY -0.2218
-4.7735 BROAD -0.2218
-4.7735 BROADBAND -0.2218
-4.7735 BROADCAST -0.2218
-4.7735 BROADCASTING -0.2218
-4.7735 BROADER -0.2218
-4.7735 BROADWAY -0.2218
-4.7735 BROCHURE -0.2218
-4.7735 BROCHURES -0.2218
-4.7735 BROKE -0.2218
-4.7735 BROKEN -0.2218
-4.7735 BROKER -0.2218
-4.7735 BROKERS -0.2218
-4.7735 BRONZE -0.2218
-4.7735 BROOK -0.2218
-4.7735 BROOKLYN -0.2218
-4.7735 BROOKS -0.2218
-4.7735 BROTHER -0.2218
-4.7735 BROTHERS -0.2218
-4.7735 BROUGHT -0.2218
-4.7735 BROWN -0.2218
-4.7735 BROWSE -0.2218
-4.7735 BROWSER -0.2218
-4.7735 BROWSERS -0.2218
-4.7735 BROWSING -0.2218
-4.7735 BRUCE -0.2218
-4.7735 BRUNEI -0.2218
-4.7735 BRUNETTE -0.2218
-4.7735 BRUNSWICK -0.2218
-4.7735 BRUSH -0.2218
-4.7735 BRUSSELS -0.2218
-4.7735 BRUTAL -0.2218
-4.7735 BRYAN -0.2218
-4.7735 BRYANT -0.2218
-4.7735 BS -0.2218
-4.7735 BT -0.2218
-4.7735 BUBBLE -0.2218
-4.7735 BUCK -0.2218
-4.7735 BUCKS -0.2218
-4.7735 BUDAPEST -0.2218
-4.7735 BUDDY -0.2218
-4.7735 BUDGET -0.2218
-4.7735 BUDGETS -0.2218
-4.7735 BUF -0.2218
-4.7735 BUFFALO -0.2218
-4.7735 BUFFER -0.2218
-4.7735 BUFING -0.2218
-4.7735 BUG -0.2218
-4.7735 BUGS -0.2218
-4.7735 BUILD -0.2218
-4.7735 BUILDER -0.2218
-4.7735 BUILDERS -0.2218
-4.7735 BUILDING -0.2218
-4.7735 BUILDINGS -0.2218
-4.7735 BUILDS -0.2218
-4.7735 BUILT -0.2218
-4.7735 BULGARIA -0.2218
-4.7735 BULGARIAN -0.2218
-4.7735 BULK -0.2218
-4.7735 BULL -0.2218
-4.7735 BULLET -0.2218
-4.7735 BULLETIN -0.2218
-4.7735 BUMPER -0.2218
-4.7735 BUNCH -0.2218
-4.7735 BUNDLE -0.2218
-4.7735 BUNNY -0.2218
-4.7735 BURDEN -0.2218
-4.7735 BUREAU -0.2218
-4.7735 BURIED -0.2218
-4.7735 BURKE -0.2218
-4.7735 BURLINGTON -0.2218
-4.7735 BURN -0.2218
-4.7735 BURNER -0.2218
-4.7735 BURNING -0.2218
-4.7735 BURNS -0.2218
-4.7735 BURST -0.2218
-4.7735 BURTON -0.2218
-4.7735 BUS -0.2218
-4.7735 BUSES -0.2218
-4.7735 BUSH -0.2218
-4.7735 BUSINESS -0.2218
-4.7735 BUSINESSES -0.2218
-4.7735 BUSY -0.2218
-4.7735 BUT -0.2218
-4.7735 BUTLER -0.2218
-4.7735 BUTTER -0.2218
-4.7735 BUTTERFLY -0.2218
-4.7735 BUTTON -0.2218
-4.7735 BUTTONS -0.2218
-4.7735 BUTTS -0.2218
-4.7735 BUY -0.2218
-4.7735 BUYER -0.2218
-4.7735 BUYERS -0.2218
-4.7735 BUYING -0.2218
-4.7735 BUYS -0.2218
-4.7735 BUZZ -0.2218
-4.7735 BW -0.2218
-4.7735 BY -0.2218
-4.7735 BYE -0.2218
-4.7735 BYTE -0.2218
-4.7735 BYTES -0.2218
-4.7735 C -0.2218
-4.7735 CA -0.2218
-4.7735 CAB -0.2218
-4.7735 CABIN -0.2218
-4.7735 CABINET -0.2218
-4.7735 CABINETS -0.2218
-4.7735 CABLE -0.2218
-4.7735 CABLES -0.2218
-4.7735 CACHE -0.2218
-4.7735 CACHED -0.2218
-4.7735 CAD -0.2218
-4.7735 CADILLAC -0.2218
-4.7735 CAFE -0.2218
-4.7735 CAGE -0.2218
-4.7735 CAKE -0.2218
-4.7735 CAKES -0.2218
-4.7735 CAL -0.2218
-4.7735 CALCIUM -0.2218
-4.7735 CALCULATE -0.2218
-4.7735 CALCULATED -0.2218
-4.7735 CALCULATION -0.2218
-4.7735 CALCULATIONS -0.2218
-4.7735 CALCULATOR -0.2218
-4.7735 CALCULATORS -0.2218
-4.7735 CALENDAR -0.2218
-4.7735 CALENDARS -0.2218
-4.7735 CALGARY -0.2218
-4.7735 CALIBRATION -0.2218
-4.7735 CALIFORNIA -0.2218
-4.7735 CALL -0.2218
-4.7735 CALLED -0.2218
-4.7735 CALLING -0.2218
-4.7735 CALLS -0.2218
-4.7735 CALM -0.2218
-4.7735 CALVIN -0.2218
-4.7735 CAM -0.2218
-4.7735 CAMBODIA -0.2218
-4.7735 CAMBRIDGE -0.2218
-4.7735 CAMCORDER -0.2218
-4.7735 CAMCORDERS -0.2218
-4.7735 CAME -0.2218
-4.7735 CAMEL -0.2218
-4.7735 CAMERA -0.2218
-4.7735 CAMERAS -0.2218
-4.7735 CAMERON -0.2218
-4.7735 CAMEROON -0.2218
-4.7735 CAMP -0.2218
-4.7735 CAMPAIGN -0.2218
-4.7735 CAMPAIGNS -0.2218
-4.7735 CAMPBELL -0.2218
-4.7735 CAMPING -0.2218
-4.7735 CAMPS -0.2218
-4.7735 CAMPUS -0.2218
-4.7735 CAMS -0.2218
-4.7735 CAN -0.2218
-4.7735 CANADA -0.2218
-4.7735 CANADIAN -0.2218
-4.7735 CANAL -0.2218
-4.7735 CANBERRA -0.2218
-4.7735 CANCEL -0.2218
-4.7735 CANCELLATION -0.2218
-4.7735 CANCELLED -0.2218
-4.7735 CANCER -0.2218
-4.7735 CANDIDATE -0.2218
-4.7735 CANDIDATES -0.2218
-4.7735 CANDLE -0.2218
-4.7735 CANDLES -0.2218
-4.7735 CANDY -0.2218
-4.7735 CANNON -0.2218
-4.7735 CANON -0.2218
-4.7735 CANT -0.2218
-4.7735 CANVAS -0.2218
-4.7735 CANYON -0.2218
-4.7735 CAP -0.2218
-4.7735 CAPABILITIES -0.2218
-4.7735 CAPABILITY -0.2218
-4.7735 CAPABLE -0.2218
-4.7735 CAPACITY -0.2218
-4.7735 CAPE -0.2218
-4.7735 CAPITAL -0.2218
-4.7735 CAPITOL -0.2218
-4.7735 CAPS -0.2218
-4.7735 CAPTAIN -0.2218
-4.7735 CAPTURE -0.2218
-4.7735 CAPTURED -0.2218
-4.7735 CAR -0.2218
-4.7735 CARB -0.2218
-4.7735 CARBON -0.2218
-4.7735 CARD -0.2218
-4.7735 CARDIAC -0.2218
-4.7735 CARDIFF -0.2218
-4.7735 CARDIOVASCULAR -0.2218
-4.7735 CARDS -0.2218
-4.7735 CARE -0.2218
-4.7735 CAREER -0.2218
-4.7735 CAREERS -0.2218
-4.7735 CAREFUL -0.2218
-4.7735 CAREFULLY -0.2218
-4.7735 CAREY -0.2218
-4.7735 CARGO -0.2218
-4.7735 CARIBBEAN -0.2218
-4.7735 CARING -0.2218
-4.7735 CARL -0.2218
-4.7735 CARLO -0.2218
-4.7735 CARLOS -0.2218
-4.7735 CARMEN -0.2218
-4.7735 CARNIVAL -0.2218
-4.7735 CAROL -0.2218
-4.7735 CAROLINA -0.2218
-4.7735 CAROLINE -0.2218
-4.7735 CARPET -0.2218
-4.7735 CARRIED -0.2218
-4.7735 CARRIER -0.2218
-4.7735 CARRIERS -0.2218
-4.7735 CARRIES -0.2218
-4.7735 CARROLL -0.2218
-4.7735 CARRY -0.2218
-4.7735 CARRYING -0.2218
-4.7735 CARS -0.2218
-4.7735 CART -0.2218
-4.7735 CARTER -0.2218
-4.7735 CARTOON -0.2218
-4.7735 CARTOONS -0.2218
-4.7735 CARTRIDGE -0.2218
-4.7735 CARTRIDGES -0.2218
-4.7735 CAS -0.2218
-4.7735 CASA -0.2218
-4.7735 CASE -0.2218
-4.7735 CASES -0.2218
-4.7735 CASEY -0.2218
-4.7735 CASH -0.2218
-4.7735 CASHIERS -0.2218
-4.7735 CASINO -0.2218
-4.7735 CASINOS -0.2218
-4.7735 CASIO -0.2218
-4.7735 CASSETTE -0.2218
-4.7735 CAST -0.2218
-4.7735 CASTING -0.2218
-4.7735 CASTLE -0.2218
-4.7735 CASUAL -0.2218
-4.7735 CAT -0.2218
-4.7735 CATALOG -0.2218
-4.7735 CATALOGS -0.2218
-4.7735 CATALOGUE -0.2218
-4.7735 CATALYST -0.2218
-4.7735 CATCH -0.2218
-4.7735 CATEGORIES -0.2218
-4.7735 CATEGORY -0.2218
-4.7735 CATERING -0.2218
-4.7735 CATHEDRAL -0.2218
-4.7735 CATHERINE -0.2218
-4.7735 CATHOLIC -0.2218
-4.7735 CATS -0.2218
-4.7735 CATTLE -0.2218
-4.7735 CAUGHT -0.2218
-4.7735 CAUSE -0.2218
-4.7735 CAUSED -0.2218
-4.7735 CAUSES -0.2218
-4.7735 CAUSING -0.2218
-4.7735 CAUTION -0.2218
-4.7735 CAVE -0.2218
-4.7735 CAYMAN -0.2218
-4.7735 CB -0.2218
-4.7735 CBS -0.2218
-4.7735 CC -0.2218
-4.7735 CCD -0.2218
-4.7735 CD -0.2218
-4.7735 CDNA -0.2218
-4.7735 CDS -0.2218
-4.7735 CDT -0.2218
-4.7735 CE -0.2218
-4.7735 CEDAR -0.2218
-4.7735 CEILING -0.2218
-4.7735 CELEBRATE -0.2218
-4.7735 CELEBRATION -0.2218
-4.7735 CELEBRITIES -0.2218
-4.7735 CELEBRITY -0.2218
-4.7735 CELEBS -0.2218
-4.7735 CELL -0.2218
-4.7735 CELLS -0.2218
-4.7735 CELLULAR -0.2218
-4.7735 CELTIC -0.2218
-4.7735 CEMENT -0.2218
-4.7735 CEMETERY -0.2218
-4.7735 CENSUS -0.2218
-4.7735 CENT -0.2218
-4.7735 CENTER -0.2218
-4.7735 CENTERED -0.2218
-4.7735 CENTERS -0.2218
-4.7735 CENTRAL -0.2218
-4.7735 CENTRE -0.2218
-4.7735 CENTRES -0.2218
-4.7735 CENTS -0.2218
-4.7735 CENTURIES -0.2218
-4.7735 CENTURY -0.2218
-4.7735 CEO -0.2218
-4.7735 CERAMIC -0.2218
-4.7735 CEREMONY -0.2218
-4.7735 CERTAIN -0.2218
-4.7735 CERTAINLY -0.2218
-4.7735 CERTIFICATE -0.2218
-4.7735 CERTIFICATES -0.2218
-4.7735 CERTIFICATION -0.2218
-4.7735 CERTIFIED -0.2218
-4.7735 CET -0.2218
-4.7735 CF -0.2218
-4.7735 CFR -0.2218
-4.7735 CG -0.2218
-4.7735 CGI -0.2218
-4.7735 CH -0.2218
-4.7735 CHAD -0.2218
-4.7735 CHAIN -0.2218
-4.7735 CHAINS -0.2218
-4.7735 CHAIR -0.2218
-4.7735 CHAIRMAN -0.2218
-4.7735 CHAIRS -0.2218
-4.7735 CHALLENGE -0.2218
-4.7735 CHALLENGED -0.2218
-4.7735 CHALLENGES -0.2218
-4.7735 CHALLENGING -0.2218
-4.7735 CHAMBER -0.2218
-4.7735 CHAMBERS -0.2218
-4.7735 CHAMPAGNE -0.2218
-4.7735 CHAMPION -0.2218
-4.7735 CHAMPIONS -0.2218
-4.7735 CHAMPIONSHIP -0.2218
-4.7735 CHAMPIONSHIPS -0.2218
-4.7735 CHAN -0.2218
-4.7735 CHANCE -0.2218
-4.7735 CHANCELLOR -0.2218
-4.7735 CHANCES -0.2218
-4.7735 CHANGE -0.2218
-4.7735 CHANGED -0.2218
-4.7735 CHANGELOG -0.2218
-4.7735 CHANGES -0.2218
-4.7735 CHANGING -0.2218
-4.7735 CHANNEL -0.2218
-4.7735 CHANNELS -0.2218
-4.7735 CHAOS -0.2218
-4.7735 CHAPEL -0.2218
-4.7735 CHAPTER -0.2218
-4.7735 CHAPTERS -0.2218
-4.7735 CHAR -0.2218
-4.7735 CHARACTER -0.2218
-4.7735 CHARACTERISTIC -0.2218
-4.7735 CHARACTERISTICS -0.2218
-4.7735 CHARACTERIZATION -0.2218
-4.7735 CHARACTERIZED -0.2218
-4.7735 CHARACTERS -0.2218
-4.7735 CHARGE -0.2218
-4.7735 CHARGED -0.2218
-4.7735 CHARGER -0.2218
-4.7735 CHARGERS -0.2218
-4.7735 CHARGES -0.2218
-4.7735 CHARGING -0.2218
-4.7735 CHARITABLE -0.2218
-4.7735 CHARITY -0.2218
-4.7735 CHARLES -0.2218
-4.7735 CHARLESTON -0.2218
-4.7735 CHARLIE -0.2218
-4.7735 CHARLOTTE -0.2218
-4.7735 CHARM -0.2218
-4.7735 CHARMING -0.2218
-4.7735 CHARMS -0.2218
-4.7735 CHART -0.2218
-4.7735 CHARTER -0.2218
-4.7735 CHARTS -0.2218
-4.7735 CHASE -0.2218
-4.7735 CHASSIS -0.2218
-4.7735 CHAT -0.2218
-4.7735 CHEAP -0.2218
-4.7735 CHEAPER -0.2218
-4.7735 CHEAPEST -0.2218
-4.7735 CHEAT -0.2218
-4.7735 CHEATS -0.2218
-4.7735 CHECK -0.2218
-4.7735 CHECKED -0.2218
-4.7735 CHECKING -0.2218
-4.7735 CHECKLIST -0.2218
-4.7735 CHECKOUT -0.2218
-4.7735 CHECKS -0.2218
-4.7735 CHEERS -0.2218
-4.7735 CHEESE -0.2218
-4.7735 CHEF -0.2218
-4.7735 CHELSEA -0.2218
-4.7735 CHEM -0.2218
-4.7735 CHEMICAL -0.2218
-4.7735 CHEMICALS -0.2218
-4.7735 CHEMISTRY -0.2218
-4.7735 CHEN -0.2218
-4.7735 CHEQUE -0.2218
-4.7735 CHERRY -0.2218
-4.7735 CHESS -0.2218
-4.7735 CHEST -0.2218
-4.7735 CHESTER -0.2218
-4.7735 CHEVROLET -0.2218
-4.7735 CHEVY -0.2218
-4.7735 CHI -0.2218
-4.7735 CHICAGO -0.2218
-4.7735 CHICK -0.2218
-4.7735 CHICKEN -0.2218
-4.7735 CHICKS -0.2218
-4.7735 CHIEF -0.2218
-4.7735 CHILD -0.2218
-4.7735 CHILDHOOD -0.2218
-4.7735 CHILDREN -0.2218
-4.7735 CHILDRENS -0.2218
-4.7735 CHILE -0.2218
-4.7735 CHINA -0.2218
-4.7735 CHINESE -0.2218
-4.7735 CHIP -0.2218
-4.7735 CHIPS -0.2218
-4.7735 CHO -0.2218
-4.7735 CHOCOLATE -0.2218
-4.7735 CHOICE -0.2218
-4.7735 CHOICES -0.2218
-4.7735 CHOIR -0.2218
-4.7735 CHOLESTEROL -0.2218
-4.7735 CHOOSE -0.2218
-4.7735 CHOOSING -0.2218
-4.7735 CHORUS -0.2218
-4.7735 CHOSE -0.2218
-4.7735 CHOSEN -0.2218
-4.7735 CHRIS -0.2218
-4.7735 CHRIST -0.2218
-4.7735 CHRISTIAN -0.2218
-4.7735 CHRISTIANITY -0.2218
-4.7735 CHRISTIANS -0.2218
-4.7735 CHRISTINA -0.2218
-4.7735 CHRISTINE -0.2218
-4.7735 CHRISTMAS -0.2218
-4.7735 CHRISTOPHER -0.2218
-4.7735 CHROME -0.2218
-4.7735 CHRONIC -0.2218
-4.7735 CHRONICLE -0.2218
-4.7735 CHRONICLES -0.2218
-4.7735 CHRYSLER -0.2218
-4.7735 CHUBBY -0.2218
-4.7735 CHUCK -0.2218
-4.7735 CHURCH -0.2218
-4.7735 CHURCHES -0.2218
-4.7735 CI -0.2218
-4.7735 CIA -0.2218
-4.7735 CIALIS -0.2218
-4.7735 CIAO -0.2218
-4.7735 CIGARETTE -0.2218
-4.7735 CIGARETTES -0.2218
-4.7735 CINCINNATI -0.2218
-4.7735 CINDY -0.2218
-4.7735 CINEMA -0.2218
-4.7735 CINGULAR -0.2218
-4.7735 CIO -0.2218
-4.7735 CIR -0.2218
-4.7735 CIRCLE -0.2218
-4.7735 CIRCLES -0.2218
-4.7735 CIRCUIT -0.2218
-4.7735 CIRCUITS -0.2218
-4.7735 CIRCULAR -0.2218
-4.7735 CIRCULATION -0.2218
-4.7735 CIRCUMSTANCES -0.2218
-4.7735 CIRCUS -0.2218
-4.7735 CISCO -0.2218
-4.7735 CITATION -0.2218
-4.7735 CITATIONS -0.2218
-4.7735 CITE -0.2218
-4.7735 CITED -0.2218
-4.7735 CITIES -0.2218
-4.7735 CITIZEN -0.2218
-4.7735 CITIZENS -0.2218
-4.7735 CITIZENSHIP -0.2218
-4.7735 CITY -0.2218
-4.7735 CITYSEARCH -0.2218
-4.7735 CIVIC -0.2218
-4.7735 CIVIL -0.2218
-4.7735 CIVILIAN -0.2218
-4.7735 CIVILIZATION -0.2218
-4.7735 CJ -0.2218
-4.7735 CL -0.2218
-4.7735 CLAIM -0.2218
-4.7735 CLAIMED -0.2218
-4.7735 CLAIMS -0.2218
-4.7735 CLAIRE -0.2218
-4.7735 CLAN -0.2218
-4.7735 CLARA -0.2218
-4.7735 CLARITY -0.2218
-4.7735 CLARK -0.2218
-4.7735 CLARKE -0.2218
-4.7735 CLASS -0.2218
-4.7735 CLASSES -0.2218
-4.7735 CLASSIC -0.2218
-4.7735 CLASSICAL -0.2218
-4.7735 CLASSICS -0.2218
-4.7735 CLASSIFICATION -0.2218
-4.7735 CLASSIFIED -0.2218
-4.7735 CLASSIFIEDS -0.2218
-4.7735 CLASSROOM -0.2218
-4.7735 CLAUSE -0.2218
-4.7735 CLAY -0.2218
-4.7735 CLEAN -0.2218
-4.7735 CLEANER -0.2218
-4.7735 CLEANERS -0.2218
-4.7735 CLEANING -0.2218
-4.7735 CLEANUP -0.2218
-4.7735 CLEAR -0.2218
-4.7735 CLEARANCE -0.2218
-4.7735 CLEARED -0.2218
-4.7735 CLEARING -0.2218
-4.7735 CLEARLY -0.2218
-4.7735 CLERK -0.2218
-4.7735 CLEVELAND -0.2218
-4.7735 CLICK -0.2218
-4.7735 CLICKING -0.2218
-4.7735 CLICKS -0.2218
-4.7735 CLIENT -0.2218
-4.7735 CLIENTS -0.2218
-4.7735 CLIFF -0.2218
-4.7735 CLIMATE -0.2218
-4.7735 CLIMB -0.2218
-4.7735 CLIMBING -0.2218
-4.7735 CLINIC -0.2218
-4.7735 CLINICAL -0.2218
-4.7735 CLINICS -0.2218
-4.7735 CLINTON -0.2218
-4.7735 CLIP -0.2218
-4.7735 CLIPS -0.2218
-4.7735 CLOCK -0.2218
-4.7735 CLOCKS -0.2218
-4.7735 CLONE -0.2218
-4.7735 CLOSE -0.2218
-4.7735 CLOSED -0.2218
-4.7735 CLOSELY -0.2218
-4.7735 CLOSER -0.2218
-4.7735 CLOSES -0.2218
-4.7735 CLOSEST -0.2218
-4.7735 CLOSING -0.2218
-4.7735 CLOSURE -0.2218
-4.7735 CLOTH -0.2218
-4.7735 CLOTHES -0.2218
-4.7735 CLOTHING -0.2218
-4.7735 CLOUD -0.2218
-4.7735 CLOUDS -0.2218
-4.7735 CLOUDY -0.2218
-4.7735 CLUB -0.2218
-4.7735 CLUBS -0.2218
-4.7735 CLUSTER -0.2218
-4.7735 CLUSTERS -0.2218
-4.7735 CM -0.2218
-4.7735 CMS -0.2218
-4.7735 CN -0.2218
-4.7735 CNET -0.2218
-4.7735 CNN -0.2218
-4.7735 CO -0.2218
-4.7735 COACH -0.2218
-4.7735 COACHES -0.2218
-4.7735 COACHING -0.2218
-4.7735 COAL -0.2218
-4.7735 COALITION -0.2218
-4.7735 COAST -0.2218
-4.7735 COASTAL -0.2218
-4.7735 COAT -0.2218
-4.7735 COATED -0.2218
-4.7735 COATING -0.2218
-4.7735 COCKTAIL -0.2218
-4.7735 COD -0.2218
-4.7735 CODE -0.2218
-4.7735 CODES -0.2218
-4.7735 CODING -0.2218
-4.7735 COFFEE -0.2218
-4.7735 COGNITIVE -0.2218
-4.7735 COHEN -0.2218
-4.7735 COIN -0.2218
-4.7735 COINS -0.2218
-4.7735 COL -0.2218
-4.7735 COLD -0.2218
-4.7735 COLE -0.2218
-4.7735 COLEMAN -0.2218
-4.7735 COLIN -0.2218
-4.7735 COLLABORATION -0.2218
-4.7735 COLLABORATIVE -0.2218
-4.7735 COLLAPSE -0.2218
-4.7735 COLLAR -0.2218
-4.7735 COLLEAGUE -0.2218
-4.7735 COLLEAGUES -0.2218
-4.7735 COLLECT -0.2218
-4.7735 COLLECTABLES -0.2218
-4.7735 COLLECTED -0.2218
-4.7735 COLLECTIBLE -0.2218
-4.7735 COLLECTIBLES -0.2218
-4.7735 COLLECTING -0.2218
-4.7735 COLLECTION -0.2218
-4.7735 COLLECTIONS -0.2218
-4.7735 COLLECTIVE -0.2218
-4.7735 COLLECTOR -0.2218
-4.7735 COLLECTORS -0.2218
-4.7735 COLLEGE -0.2218
-4.7735 COLLEGES -0.2218
-4.7735 COLLINS -0.2218
-4.7735 COLOGNE -0.2218
-4.7735 COLOMBIA -0.2218
-4.7735 COLON -0.2218
-4.7735 COLONIAL -0.2218
-4.7735 COLONY -0.2218
-4.7735 COLOR -0.2218
-4.7735 COLORADO -0.2218
-4.7735 COLORED -0.2218
-4.7735 COLORS -0.2218
-4.7735 COLOUR -0.2218
-4.7735 COLOURS -0.2218
-4.7735 COLUMBIA -0.2218
-4.7735 COLUMBUS -0.2218
-4.7735 COLUMN -0.2218
-4.7735 COLUMNISTS -0.2218
-4.7735 COLUMNS -0.2218
-4.7735 COM -0.2218
-4.7735 COMBAT -0.2218
-4.7735 COMBINATION -0.2218
-4.7735 COMBINATIONS -0.2218
-4.7735 COMBINE -0.2218
-4.7735 COMBINED -0.2218
-4.7735 COMBINES -0.2218
-4.7735 COMBINING -0.2218
-4.7735 COMBO -0.2218
-4.7735 COME -0.2218
-4.7735 COMEDY -0.2218
-4.7735 COMES -0.2218
-4.7735 COMFORT -0.2218
-4.7735 COMFORTABLE -0.2218
-4.7735 COMIC -0.2218
-4.7735 COMICS -0.2218
-4.7735 COMING -0.2218
-4.7735 COMM -0.2218
-4.7735 COMMAND -0.2218
-4.7735 COMMANDER -0.2218
-4.7735 COMMANDS -0.2218
-4.7735 COMMENT -0.2218
-4.7735 COMMENTARY -0.2218
-4.7735 COMMENTED -0.2218
-4.7735 COMMENTS -0.2218
-4.7735 COMMERCE -0.2218
-4.7735 COMMERCIAL -0.2218
-4.7735 COMMISSION -0.2218
-4.7735 COMMISSIONER -0.2218
-4.7735 COMMISSIONERS -0.2218
-4.7735 COMMISSIONS -0.2218
-4.7735 COMMIT -0.2218
-4.7735 COMMITMENT -0.2218
-4.7735 COMMITMENTS -0.2218
-4.7735 COMMITTED -0.2218
-4.7735 COMMITTEE -0.2218
-4.7735 COMMITTEES -0.2218
-4.7735 COMMODITIES -0.2218
-4.7735 COMMODITY -0.2218
-4.7735 COMMON -0.2218
-4.7735 COMMONLY -0.2218
-4.7735 COMMONS -0.2218
-4.7735 COMMONWEALTH -0.2218
-4.7735 COMMUNICATE -0.2218
-4.7735 COMMUNICATION -0.2218
-4.7735 COMMUNICATIONS -0.2218
-4.7735 COMMUNIST -0.2218
-4.7735 COMMUNITIES -0.2218
-4.7735 COMMUNITY -0.2218
-4.7735 COMP -0.2218
-4.7735 COMPACT -0.2218
-4.7735 COMPANIES -0.2218
-4.7735 COMPANION -0.2218
-4.7735 COMPANY -0.2218
-4.7735 COMPAQ -0.2218
-4.7735 COMPARABLE -0.2218
-4.7735 COMPARATIVE -0.2218
-4.7735 COMPARE -0.2218
-4.7735 COMPARED -0.2218
-4.7735 COMPARING -0.2218
-4.7735 COMPARISON -0.2218
-4.7735 COMPARISONS -0.2218
-4.7735 COMPATIBILITY -0.2218
-4.7735 COMPATIBLE -0.2218
-4.7735 COMPENSATION -0.2218
-4.7735 COMPETE -0.2218
-4.7735 COMPETENT -0.2218
-4.7735 COMPETING -0.2218
-4.7735 COMPETITION -0.2218
-4.7735 COMPETITIONS -0.2218
-4.7735 COMPETITIVE -0.2218
-4.7735 COMPETITORS -0.2218
-4.7735 COMPILATION -0.2218
-4.7735 COMPILE -0.2218
-4.7735 COMPILED -0.2218
-4.7735 COMPILER -0.2218
-4.7735 COMPLAINT -0.2218
-4.7735 COMPLAINTS -0.2218
-4.7735 COMPLEMENT -0.2218
-4.7735 COMPLETE -0.2218
-4.7735 COMPLETED -0.2218
-4.7735 COMPLETELY -0.2218
-4.7735 COMPLETING -0.2218
-4.7735 COMPLETION -0.2218
-4.7735 COMPLEX -0.2218
-4.7735 COMPLEXITY -0.2218
-4.7735 COMPLIANCE -0.2218
-4.7735 COMPLIANT -0.2218
-4.7735 COMPLICATED -0.2218
-4.7735 COMPLICATIONS -0.2218
-4.7735 COMPLIMENTARY -0.2218
-4.7735 COMPLY -0.2218
-4.7735 COMPONENT -0.2218
-4.7735 COMPONENTS -0.2218
-4.7735 COMPOSED -0.2218
-4.7735 COMPOSER -0.2218
-4.7735 COMPOSITE -0.2218
-4.7735 COMPOSITION -0.2218
-4.7735 COMPOUND -0.2218
-4.7735 COMPOUNDS -0.2218
-4.7735 COMPREHENSIVE -0.2218
-4.7735 COMPRESSED -0.2218
-4.7735 COMPRESSION -0.2218
-4.7735 COMPROMISE -0.2218
-4.7735 COMPUTATION -0.2218
-4.7735 COMPUTATIONAL -0.2218
-4.7735 COMPUTE -0.2218
-4.7735 COMPUTED -0.2218
-4.7735 COMPUTER -0.2218
-4.7735 COMPUTERS -0.2218
-4.7735 COMPUTING -0.2218
-4.7735 CON -0.2218
-4.7735 CONCENTRATE -0.2218
-4.7735 CONCENTRATION -0.2218
-4.7735 CONCENTRATIONS -0.2218
-4.7735 CONCEPT -0.2218
-4.7735 CONCEPTS -0.2218
-4.7735 CONCEPTUAL -0.2218
-4.7735 CONCERN -0.2218
-4.7735 CONCERNED -0.2218
-4.7735 CONCERNING -0.2218
-4.7735 CONCERNS -0.2218
-4.7735 CONCERT -0.2218
-4.7735 CONCERTS -0.2218
-4.7735 CONCLUDE -0.2218
-4.7735 CONCLUDED -0.2218
-4.7735 CONCLUSION -0.2218
-4.7735 CONCLUSIONS -0.2218
-4.7735 CONCORD -0.2218
-4.7735 CONCRETE -0.2218
-4.7735 CONDITION -0.2218
-4.7735 CONDITIONAL -0.2218
-4.7735 CONDITIONING -0.2218
-4.7735 CONDITIONS -0.2218
-4.7735 CONDO -0.2218
-4.7735 CONDOS -0.2218
-4.7735 CONDUCT -0.2218
-4.7735 CONDUCTED -0.2218
-4.7735 CONDUCTING -0.2218
-4.7735 CONF -0.2218
-4.7735 CONFERENCE -0.2218
-4.7735 CONFERENCES -0.2218
-4.7735 CONFERENCING -0.2218
-4.7735 CONFIDENCE -0.2218
-4.7735 CONFIDENT -0.2218
-4.7735 CONFIDENTIAL -0.2218
-4.7735 CONFIDENTIALITY -0.2218
-4.7735 CONFIG -0.2218
-4.7735 CONFIGURATION -0.2218
-4.7735 CONFIGURATIONS -0.2218
-4.7735 CONFIGURE -0.2218
-4.7735 CONFIGURED -0.2218
-4.7735 CONFIGURING -0.2218
-4.7735 CONFIRM -0.2218
-4.7735 CONFIRMATION -0.2218
-4.7735 CONFIRMED -0.2218
-4.7735 CONFLICT -0.2218
-4.7735 CONFLICTS -0.2218
-4.7735 CONFUSED -0.2218
-4.7735 CONFUSION -0.2218
-4.7735 CONGO -0.2218
-4.7735 CONGRATULATIONS -0.2218
-4.7735 CONGRESS -0.2218
-4.7735 CONGRESSIONAL -0.2218
-4.7735 CONJUNCTION -0.2218
-4.7735 CONNECT -0.2218
-4.7735 CONNECTED -0.2218
-4.7735 CONNECTICUT -0.2218
-4.7735 CONNECTING -0.2218
-4.7735 CONNECTION -0.2218
-4.7735 CONNECTIONS -0.2218
-4.7735 CONNECTIVITY -0.2218
-4.7735 CONNECTOR -0.2218
-4.7735 CONNECTORS -0.2218
-4.7735 CONS -0.2218
-4.7735 CONSCIOUS -0.2218
-4.7735 CONSCIOUSNESS -0.2218
-4.7735 CONSECUTIVE -0.2218
-4.7735 CONSENSUS -0.2218
-4.7735 CONSENT -0.2218
-4.7735 CONSEQUENCE -0.2218
-4.7735 CONSEQUENCES -0.2218
-4.7735 CONSEQUENTLY -0.2218
-4.7735 CONSERVATION -0.2218
-4.7735 CONSERVATIVE -0.2218
-4.7735 CONSIDER -0.2218
-4.7735 CONSIDERABLE -0.2218
-4.7735 CONSIDERATION -0.2218
-4.7735 CONSIDERATIONS -0.2218
-4.7735 CONSIDERED -0.2218
-4.7735 CONSIDERING -0.2218
-4.7735 CONSIDERS -0.2218
-4.7735 CONSIST -0.2218
-4.7735 CONSISTENCY -0.2218
-4.7735 CONSISTENT -0.2218
-4.7735 CONSISTENTLY -0.2218
-4.7735 CONSISTING -0.2218
-4.7735 CONSISTS -0.2218
-4.7735 CONSOLE -0.2218
-4.7735 CONSOLES -0.2218
-4.7735 CONSOLIDATED -0.2218
-4.7735 CONSOLIDATION -0.2218
-4.7735 CONSORTIUM -0.2218
-4.7735 CONSPIRACY -0.2218
-4.7735 CONST -0.2218
-4.7735 CONSTANT -0.2218
-4.7735 CONSTANTLY -0.2218
-4.7735 CONSTITUTE -0.2218
-4.7735 CONSTITUTES -0.2218
-4.7735 CONSTITUTION -0.2218
-4.7735 CONSTITUTIONAL -0.2218
-4.7735 CONSTRAINT -0.2218
-4.7735 CONSTRAINTS -0.2218
-4.7735 CONSTRUCT -0.2218
-4.7735 CONSTRUCTED -0.2218
-4.7735 CONSTRUCTION -0.2218
-4.7735 CONSULT -0.2218
-4.7735 CONSULTANCY -0.2218
-4.7735 CONSULTANT -0.2218
-4.7735 CONSULTANTS -0.2218
-4.7735 CONSULTATION -0.2218
-4.7735 CONSULTING -0.2218
-4.7735 CONSUMER -0.2218
-4.7735 CONSUMERS -0.2218
-4.7735 CONSUMPTION -0.2218
-4.7735 CONTACT -0.2218
-4.7735 CONTACTED -0.2218
-4.7735 CONTACTING -0.2218
-4.7735 CONTACTS -0.2218
-4.7735 CONTAIN -0.2218
-4.7735 CONTAINED -0.2218
-4.7735 CONTAINER -0.2218
-4.7735 CONTAINERS -0.2218
-4.7735 CONTAINING -0.2218
-4.7735 CONTAINS -0.2218
-4.7735 CONTAMINATION -0.2218
-4.7735 CONTEMPORARY -0.2218
-4.7735 CONTENT -0.2218
-4.7735 CONTENTS -0.2218
-4.7735 CONTEST -0.2218
-4.7735 CONTESTS -0.2218
-4.7735 CONTEXT -0.2218
-4.7735 CONTINENT -0.2218
-4.7735 CONTINENTAL -0.2218
-4.7735 CONTINUALLY -0.2218
-4.7735 CONTINUE -0.2218
-4.7735 CONTINUED -0.2218
-4.7735 CONTINUES -0.2218
-4.7735 CONTINUING -0.2218
-4.7735 CONTINUITY -0.2218
-4.7735 CONTINUOUS -0.2218
-4.7735 CONTINUOUSLY -0.2218
-4.7735 CONTRACT -0.2218
-4.7735 CONTRACTING -0.2218
-4.7735 CONTRACTOR -0.2218
-4.7735 CONTRACTORS -0.2218
-4.7735 CONTRACTS -0.2218
-4.7735 CONTRARY -0.2218
-4.7735 CONTRAST -0.2218
-4.7735 CONTRIBUTE -0.2218
-4.7735 CONTRIBUTED -0.2218
-4.7735 CONTRIBUTING -0.2218
-4.7735 CONTRIBUTION -0.2218
-4.7735 CONTRIBUTIONS -0.2218
-4.7735 CONTRIBUTOR -0.2218
-4.7735 CONTRIBUTORS -0.2218
-4.7735 CONTROL -0.2218
-4.7735 CONTROLLED -0.2218
-4.7735 CONTROLLER -0.2218
-4.7735 CONTROLLERS -0.2218
-4.7735 CONTROLLING -0.2218
-4.7735 CONTROLS -0.2218
-4.7735 CONTROVERSIAL -0.2218
-4.7735 CONTROVERSY -0.2218
-4.7735 CONVENIENCE -0.2218
-4.7735 CONVENIENT -0.2218
-4.7735 CONVENTION -0.2218
-4.7735 CONVENTIONAL -0.2218
-4.7735 CONVENTIONS -0.2218
-4.7735 CONVERGENCE -0.2218
-4.7735 CONVERSATION -0.2218
-4.7735 CONVERSATIONS -0.2218
-4.7735 CONVERSION -0.2218
-4.7735 CONVERT -0.2218
-4.7735 CONVERTED -0.2218
-4.7735 CONVERTER -0.2218
-4.7735 CONVERTIBLE -0.2218
-4.7735 CONVICTED -0.2218
-4.7735 CONVICTION -0.2218
-4.7735 CONVINCED -0.2218
-4.7735 COOK -0.2218
-4.7735 COOKBOOK -0.2218
-4.7735 COOKED -0.2218
-4.7735 COOKIE -0.2218
-4.7735 COOKIES -0.2218
-4.7735 COOKING -0.2218
-4.7735 COOL -0.2218
-4.7735 COOLER -0.2218
-4.7735 COOLING -0.2218
-4.7735 COOPER -0.2218
-4.7735 COOPERATION -0.2218
-4.7735 COOPERATIVE -0.2218
-4.7735 COORDINATE -0.2218
-4.7735 COORDINATED -0.2218
-4.7735 COORDINATES -0.2218
-4.7735 COORDINATION -0.2218
-4.7735 COORDINATOR -0.2218
-4.7735 COP -0.2218
-4.7735 COPE -0.2218
-4.7735 COPIED -0.2218
-4.7735 COPIES -0.2218
-4.7735 COPPER -0.2218
-4.7735 COPY -0.2218
-4.7735 COPYING -0.2218
-4.7735 COPYRIGHT -0.2218
-4.7735 COPYRIGHTED -0.2218
-4.7735 COPYRIGHTS -0.2218
-4.7735 CORAL -0.2218
-4.7735 CORD -0.2218
-4.7735 CORDLESS -0.2218
-4.7735 CORE -0.2218
-4.7735 CORK -0.2218
-4.7735 CORN -0.2218
-4.7735 CORNELL -0.2218
-4.7735 CORNER -0.2218
-4.7735 CORNERS -0.2218
-4.7735 CORNWALL -0.2218
-4.7735 CORP -0.2218
-4.7735 CORPORATE -0.2218
-4.7735 CORPORATION -0.2218
-4.7735 CORPORATIONS -0.2218
-4.7735 CORPS -0.2218
-4.7735 CORPUS -0.2218
-4.7735 CORRECT -0.2218
-4.7735 CORRECTED -0.2218
-4.7735 CORRECTION -0.2218
-4.7735 CORRECTIONS -0.2218
-4.7735 CORRECTLY -0.2218
-4.7735 CORRELATION -0.2218
-4.7735 CORRESPONDENCE -0.2218
-4.7735 CORRESPONDING -0.2218
-4.7735 CORRUPTION -0.2218
-4.7735 COS -0.2218
-4.7735 COSMETIC -0.2218
-4.7735 COSMETICS -0.2218
-4.7735 COST -0.2218
-4.7735 COSTA -0.2218
-4.7735 COSTS -0.2218
-4.7735 COSTUME -0.2218
-4.7735 COSTUMES -0.2218
-4.7735 COTTAGE -0.2218
-4.7735 COTTAGES -0.2218
-4.7735 COTTON -0.2218
-4.7735 COULD -0.2218
-4.7735 COUNCIL -0.2218
-4.7735 COUNCILS -0.2218
-4.7735 COUNSEL -0.2218
-4.7735 COUNSELING -0.2218
-4.7735 COUNT -0.2218
-4.7735 COUNTED -0.2218
-4.7735 COUNTER -0.2218
-4.7735 COUNTERS -0.2218
-4.7735 COUNTIES -0.2218
-4.7735 COUNTING -0.2218
-4.7735 COUNTRIES -0.2218
-4.7735 COUNTRY -0.2218
-4.7735 COUNTS -0.2218
-4.7735 COUNTY -0.2218
-4.7735 COUPLE -0.2218
-4.7735 COUPLED -0.2218
-4.7735 COUPLES -0.2218
-4.7735 COUPON -0.2218
-4.7735 COUPONS -0.2218
-4.7735 COURAGE -0.2218
-4.7735 COURIER -0.2218
-4.7735 COURSE -0.2218
-4.7735 COURSES -0.2218
-4.7735 COURT -0.2218
-4.7735 COURTESY -0.2218
-4.7735 COURTS -0.2218
-4.7735 COVE -0.2218
-4.7735 COVER -0.2218
-4.7735 COVERAGE -0.2218
-4.7735 COVERED -0.2218
-4.7735 COVERING -0.2218
-4.7735 COVERS -0.2218
-4.7735 COW -0.2218
-4.7735 COWBOY -0.2218
-4.7735 CP -0.2218
-4.7735 CPU -0.2218
-4.7735 CR -0.2218
-4.7735 CRACK -0.2218
-4.7735 CRADLE -0.2218
-4.7735 CRAFT -0.2218
-4.7735 CRAFTS -0.2218
-4.7735 CRAIG -0.2218
-4.7735 CRAPS -0.2218
-4.7735 CRASH -0.2218
-4.7735 CRAWFORD -0.2218
-4.7735 CRAZY -0.2218
-4.7735 CREAM -0.2218
-4.7735 CREATE -0.2218
-4.7735 CREATED -0.2218
-4.7735 CREATES -0.2218
-4.7735 CREATING -0.2218
-4.7735 CREATION -0.2218
-4.7735 CREATIONS -0.2218
-4.7735 CREATIVE -0.2218
-4.7735 CREATIVITY -0.2218
-4.7735 CREATOR -0.2218
-4.7735 CREATURE -0.2218
-4.7735 CREATURES -0.2218
-4.7735 CREDIT -0.2218
-4.7735 CREDITS -0.2218
-4.7735 CREEK -0.2218
-4.7735 CREST -0.2218
-4.7735 CREW -0.2218
-4.7735 CRICKET -0.2218
-4.7735 CRIME -0.2218
-4.7735 CRIMES -0.2218
-4.7735 CRIMINAL -0.2218
-4.7735 CRISIS -0.2218
-4.7735 CRITERIA -0.2218
-4.7735 CRITERION -0.2218
-4.7735 CRITICAL -0.2218
-4.7735 CRITICISM -0.2218
-4.7735 CRITICS -0.2218
-4.7735 CRM -0.2218
-4.7735 CROATIA -0.2218
-4.7735 CROP -0.2218
-4.7735 CROPS -0.2218
-4.7735 CROSS -0.2218
-4.7735 CROSSING -0.2218
-4.7735 CROSSWORD -0.2218
-4.7735 CROWD -0.2218
-4.7735 CROWN -0.2218
-4.7735 CRUCIAL -0.2218
-4.7735 CRUDE -0.2218
-4.7735 CRUISE -0.2218
-4.7735 CRUISES -0.2218
-4.7735 CRUZ -0.2218
-4.7735 CRY -0.2218
-4.7735 CRYSTAL -0.2218
-4.7735 CS -0.2218
-4.7735 CSS -0.2218
-4.7735 CST -0.2218
-4.7735 CT -0.2218
-4.7735 CTRL -0.2218
-4.7735 CU -0.2218
-4.7735 CUBA -0.2218
-4.7735 CUBE -0.2218
-4.7735 CUBIC -0.2218
-4.7735 CUISINE -0.2218
-4.7735 CULT -0.2218
-4.7735 CULTURAL -0.2218
-4.7735 CULTURE -0.2218
-4.7735 CULTURES -0.2218
-4.7735 CUMULATIVE -0.2218
-4.7735 CUP -0.2218
-4.7735 CUPS -0.2218
-4.7735 CURE -0.2218
-4.7735 CURIOUS -0.2218
-4.7735 CURRENCIES -0.2218
-4.7735 CURRENCY -0.2218
-4.7735 CURRENT -0.2218
-4.7735 CURRENTLY -0.2218
-4.7735 CURRICULUM -0.2218
-4.7735 CURSOR -0.2218
-4.7735 CURTIS -0.2218
-4.7735 CURVE -0.2218
-4.7735 CURVES -0.2218
-4.7735 CUSTODY -0.2218
-4.7735 CUSTOM -0.2218
-4.7735 CUSTOMER -0.2218
-4.7735 CUSTOMERS -0.2218
-4.7735 CUSTOMISE -0.2218
-4.7735 CUSTOMIZE -0.2218
-4.7735 CUSTOMIZED -0.2218
-4.7735 CUSTOMS -0.2218
-4.7735 CUT -0.2218
-4.7735 CUTE -0.2218
-4.7735 CUTS -0.2218
-4.7735 CUTTING -0.2218
-4.7735 CV -0.2218
-4.7735 CVS -0.2218
-4.7735 CW -0.2218
-4.7735 CYBER -0.2218
-4.7735 CYCLE -0.2218
-4.7735 CYCLES -0.2218
-4.7735 CYCLING -0.2218
-4.7735 CYLINDER -0.2218
-4.7735 CYPRUS -0.2218
-4.7735 CZ -0.2218
-4.7735 CZECH -0.2218
-4.7735 D -0.2218
-4.7735 DA -0.2218
-4.7735 DAD -0.2218
-4.7735 DADDY -0.2218
-4.7735 DAILY -0.2218
-4.7735 DAIRY -0.2218
-4.7735 DAISY -0.2218
-4.7735 DAKOTA -0.2218
-4.7735 DALE -0.2218
-4.7735 DALLAS -0.2218
-4.7735 DAM -0.2218
-4.7735 DAMAGE -0.2218
-4.7735 DAMAGED -0.2218
-4.7735 DAMAGES -0.2218
-4.7735 DAME -0.2218
-4.7735 DAN -0.2218
-4.7735 DANA -0.2218
-4.7735 DANCE -0.2218
-4.7735 DANCING -0.2218
-4.7735 DANGER -0.2218
-4.7735 DANGEROUS -0.2218
-4.7735 DANIEL -0.2218
-4.7735 DANISH -0.2218
-4.7735 DANNY -0.2218
-4.7735 DANS -0.2218
-4.7735 DARE -0.2218
-4.7735 DARK -0.2218
-4.7735 DARKNESS -0.2218
-4.7735 DARWIN -0.2218
-4.7735 DAS -0.2218
-4.7735 DASH -0.2218
-4.7735 DAT -0.2218
-4.7735 DATA -0.2218
-4.7735 DATABASE -0.2218
-4.7735 DATABASES -0.2218
-4.7735 DATE -0.2218
-4.7735 DATED -0.2218
-4.7735 DATES -0.2218
-4.7735 DATING -0.2218
-4.7735 DAUGHTER -0.2218
-4.7735 DAUGHTERS -0.2218
-4.7735 DAVE -0.2218
-4.7735 DAVID -0.2218
-4.7735 DAVIDSON -0.2218
-4.7735 DAVIS -0.2218
-4.7735 DAWN -0.2218
-4.7735 DAY -0.2218
-4.7735 DAYS -0.2218
-4.7735 DAYTON -0.2218
-4.7735 DB -0.2218
-4.7735 DC -0.2218
-4.7735 DD -0.2218
-4.7735 DDR -0.2218
-4.7735 DE -0.2218
-4.7735 DEAD -0.2218
-4.7735 DEADLINE -0.2218
-4.7735 DEADLY -0.2218
-4.7735 DEAF -0.2218
-4.7735 DEAL -0.2218
-4.7735 DEALER -0.2218
-4.7735 DEALERS -0.2218
-4.7735 DEALING -0.2218
-4.7735 DEALS -0.2218
-4.7735 DEALT -0.2218
-4.7735 DEALTIME -0.2218
-4.7735 DEAN -0.2218
-4.7735 DEAR -0.2218
-4.7735 DEATH -0.2218
-4.7735 DEATHS -0.2218
-4.7735 DEBATE -0.2218
-4.7735 DEBIAN -0.2218
-4.7735 DEBORAH -0.2218
-4.7735 DEBT -0.2218
-4.7735 DEBUG -0.2218
-4.7735 DEBUT -0.2218
-4.7735 DEC -0.2218
-4.7735 DECADE -0.2218
-4.7735 DECADES -0.2218
-4.7735 DECEMBER -0.2218
-4.7735 DECENT -0.2218
-4.7735 DECIDE -0.2218
-4.7735 DECIDED -0.2218
-4.7735 DECIMAL -0.2218
-4.7735 DECISION -0.2218
-4.7735 DECISIONS -0.2218
-4.7735 DECK -0.2218
-4.7735 DECLARATION -0.2218
-4.7735 DECLARE -0.2218
-4.7735 DECLARED -0.2218
-4.7735 DECLINE -0.2218
-4.7735 DECLINED -0.2218
-4.7735 DECOR -0.2218
-4.7735 DECORATING -0.2218
-4.7735 DECORATIVE -0.2218
-4.7735 DECREASE -0.2218
-4.7735 DECREASED -0.2218
-4.7735 DEDICATED -0.2218
-4.7735 DEE -0.2218
-4.7735 DEEMED -0.2218
-4.7735 DEEP -0.2218
-4.7735 DEEPER -0.2218
-4.7735 DEEPLY -0.2218
-4.7735 DEER -0.2218
-4.7735 DEF -0.2218
-4.7735 DEFAULT -0.2218
-4.7735 DEFEAT -0.2218
-4.7735 DEFECTS -0.2218
-4.7735 DEFENCE -0.2218
-4.7735 DEFEND -0.2218
-4.7735 DEFENDANT -0.2218
-4.7735 DEFENSE -0.2218
-4.7735 DEFENSIVE -0.2218
-4.7735 DEFERRED -0.2218
-4.7735 DEFICIT -0.2218
-4.7735 DEFINE -0.2218
-4.7735 DEFINED -0.2218
-4.7735 DEFINES -0.2218
-4.7735 DEFINING -0.2218
-4.7735 DEFINITELY -0.2218
-4.7735 DEFINITION -0.2218
-4.7735 DEFINITIONS -0.2218
-4.7735 DEGREE -0.2218
-4.7735 DEGREES -0.2218
-4.7735 DEL -0.2218
-4.7735 DELAWARE -0.2218
-4.7735 DELAY -0.2218
-4.7735 DELAYED -0.2218
-4.7735 DELAYS -0.2218
-4.7735 DELEGATION -0.2218
-4.7735 DELETE -0.2218
-4.7735 DELETED -0.2218
-4.7735 DELHI -0.2218
-4.7735 DELICIOUS -0.2218
-4.7735 DELIGHT -0.2218
-4.7735 DELIVER -0.2218
-4.7735 DELIVERED -0.2218
-4.7735 DELIVERING -0.2218
-4.7735 DELIVERS -0.2218
-4.7735 DELIVERY -0.2218
-4.7735 DELL -0.2218
-4.7735 DELTA -0.2218
-4.7735 DELUXE -0.2218
-4.7735 DEM -0.2218
-4.7735 DEMAND -0.2218
-4.7735 DEMANDING -0.2218
-4.7735 DEMANDS -0.2218
-4.7735 DEMO -0.2218
-4.7735 DEMOCRACY -0.2218
-4.7735 DEMOCRAT -0.2218
-4.7735 DEMOCRATIC -0.2218
-4.7735 DEMOCRATS -0.2218
-4.7735 DEMOGRAPHIC -0.2218
-4.7735 DEMONSTRATE -0.2218
-4.7735 DEMONSTRATED -0.2218
-4.7735 DEMONSTRATES -0.2218
-4.7735 DEMONSTRATION -0.2218
-4.7735 DEN -0.2218
-4.7735 DENIAL -0.2218
-4.7735 DENIED -0.2218
-4.7735 DENMARK -0.2218
-4.7735 DENNIS -0.2218
-4.7735 DENSE -0.2218
-4.7735 DENSITY -0.2218
-4.7735 DENTAL -0.2218
-4.7735 DENTISTS -0.2218
-4.7735 DENVER -0.2218
-4.7735 DENY -0.2218
-4.7735 DEPARTMENT -0.2218
-4.7735 DEPARTMENTAL -0.2218
-4.7735 DEPARTMENTS -0.2218
-4.7735 DEPARTURE -0.2218
-4.7735 DEPEND -0.2218
-4.7735 DEPENDENCE -0.2218
-4.7735 DEPENDENT -0.2218
-4.7735 DEPENDING -0.2218
-4.7735 DEPENDS -0.2218
-4.7735 DEPLOYMENT -0.2218
-4.7735 DEPOSIT -0.2218
-4.7735 DEPOSITS -0.2218
-4.7735 DEPOT -0.2218
-4.7735 DEPRESSION -0.2218
-4.7735 DEPT -0.2218
-4.7735 DEPTH -0.2218
-4.7735 DEPUTY -0.2218
-4.7735 DER -0.2218
-4.7735 DERBY -0.2218
-4.7735 DEREK -0.2218
-4.7735 DERIVED -0.2218
-4.7735 DES -0.2218
-4.7735 DESCENDING -0.2218
-4.7735 DESCRIBE -0.2218
-4.7735 DESCRIBED -0.2218
-4.7735 DESCRIBES -0.2218
-4.7735 DESCRIBING -0.2218
-4.7735 DESCRIPTION -0.2218
-4.7735 DESCRIPTIONS -0.2218
-4.7735 DESERT -0.2218
-4.7735 DESERVE -0.2218
-4.7735 DESIGN -0.2218
-4.7735 DESIGNATED -0.2218
-4.7735 DESIGNATION -0.2218
-4.7735 DESIGNED -0.2218
-4.7735 DESIGNER -0.2218
-4.7735 DESIGNERS -0.2218
-4.7735 DESIGNING -0.2218
-4.7735 DESIGNS -0.2218
-4.7735 DESIRABLE -0.2218
-4.7735 DESIRE -0.2218
-4.7735 DESIRED -0.2218
-4.7735 DESK -0.2218
-4.7735 DESKTOP -0.2218
-4.7735 DESKTOPS -0.2218
-4.7735 DESPERATE -0.2218
-4.7735 DESPITE -0.2218
-4.7735 DESTINATION -0.2218
-4.7735 DESTINATIONS -0.2218
-4.7735 DESTINY -0.2218
-4.7735 DESTROY -0.2218
-4.7735 DESTROYED -0.2218
-4.7735 DESTRUCTION -0.2218
-4.7735 DETAIL -0.2218
-4.7735 DETAILED -0.2218
-4.7735 DETAILS -0.2218
-4.7735 DETECT -0.2218
-4.7735 DETECTED -0.2218
-4.7735 DETECTION -0.2218
-4.7735 DETECTIVE -0.2218
-4.7735 DETECTOR -0.2218
-4.7735 DETERMINATION -0.2218
-4.7735 DETERMINE -0.2218
-4.7735 DETERMINED -0.2218
-4.7735 DETERMINES -0.2218
-4.7735 DETERMINING -0.2218
-4.7735 DETROIT -0.2218
-4.7735 DEUTSCH -0.2218
-4.7735 DEUTSCHE -0.2218
-4.7735 DEUTSCHLAND -0.2218
-4.7735 DEV -0.2218
-4.7735 DEVEL -0.2218
-4.7735 DEVELOP -0.2218
-4.7735 DEVELOPED -0.2218
-4.7735 DEVELOPER -0.2218
-4.7735 DEVELOPERS -0.2218
-4.7735 DEVELOPING -0.2218
-4.7735 DEVELOPMENT -0.2218
-4.7735 DEVELOPMENTAL -0.2218
-4.7735 DEVELOPMENTS -0.2218
-4.7735 DEVELOPS -0.2218
-4.7735 DEVIANT -0.2218
-4.7735 DEVIATION -0.2218
-4.7735 DEVICE -0.2218
-4.7735 DEVICES -0.2218
-4.7735 DEVIL -0.2218
-4.7735 DEVON -0.2218
-4.7735 DEVOTED -0.2218
-4.7735 DF -0.2218
-4.7735 DG -0.2218
-4.7735 DH -0.2218
-4.7735 DI -0.2218
-4.7735 DIABETES -0.2218
-4.7735 DIAGNOSIS -0.2218
-4.7735 DIAGNOSTIC -0.2218
-4.7735 DIAGRAM -0.2218
-4.7735 DIAL -0.2218
-4.7735 DIALOG -0.2218
-4.7735 DIALOGUE -0.2218
-4.7735 DIAMETER -0.2218
-4.7735 DIAMOND -0.2218
-4.7735 DIAMONDS -0.2218
-4.7735 DIANA -0.2218
-4.7735 DIANE -0.2218
-4.7735 DIARY -0.2218
-4.7735 DICE -0.2218
-4.7735 DICKE -0.2218
-4.7735 DICTIONARIES -0.2218
-4.7735 DICTIONARY -0.2218
-4.7735 DID -0.2218
-4.7735 DIE -0.2218
-4.7735 DIED -0.2218
-4.7735 DIEGO -0.2218
-4.7735 DIES -0.2218
-4.7735 DIESEL -0.2218
-4.7735 DIET -0.2218
-4.7735 DIETARY -0.2218
-4.7735 DIFF -0.2218
-4.7735 DIFFER -0.2218
-4.7735 DIFFERENCE -0.2218
-4.7735 DIFFERENCES -0.2218
-4.7735 DIFFERENT -0.2218
-4.7735 DIFFERENTIAL -0.2218
-4.7735 DIFFERENTLY -0.2218
-4.7735 DIFFICULT -0.2218
-4.7735 DIFFICULTIES -0.2218
-4.7735 DIFFICULTY -0.2218
-4.7735 DIFFS -0.2218
-4.7735 DIG -0.2218
-4.7735 DIGEST -0.2218
-4.7735 DIGIT -0.2218
-4.7735 DIGITAL -0.2218
-4.7735 DIM -0.2218
-4.7735 DIMENSION -0.2218
-4.7735 DIMENSIONAL -0.2218
-4.7735 DIMENSIONS -0.2218
-4.7735 DINING -0.2218
-4.7735 DINNER -0.2218
-4.7735 DIP -0.2218
-4.7735 DIPLOMA -0.2218
-4.7735 DIR -0.2218
-4.7735 DIRECT -0.2218
-4.7735 DIRECTED -0.2218
-4.7735 DIRECTION -0.2218
-4.7735 DIRECTIONS -0.2218
-4.7735 DIRECTIVE -0.2218
-4.7735 DIRECTLY -0.2218
-4.7735 DIRECTOR -0.2218
-4.7735 DIRECTORIES -0.2218
-4.7735 DIRECTORS -0.2218
-4.7735 DIRECTORY -0.2218
-4.7735 DIRT -0.2218
-4.7735 DIRTY -0.2218
-4.7735 DIS -0.2218
-4.7735 DISABILITIES -0.2218
-4.7735 DISABILITY -0.2218
-4.7735 DISABLE -0.2218
-4.7735 DISABLED -0.2218
-4.7735 DISAGREE -0.2218
-4.7735 DISAPPOINTED -0.2218
-4.7735 DISASTER -0.2218
-4.7735 DISC -0.2218
-4.7735 DISCHARGE -0.2218
-4.7735 DISCIPLINARY -0.2218
-4.7735 DISCIPLINE -0.2218
-4.7735 DISCIPLINES -0.2218
-4.7735 DISCLAIMER -0.2218
-4.7735 DISCLAIMERS -0.2218
-4.7735 DISCLOSE -0.2218
-4.7735 DISCLOSURE -0.2218
-4.7735 DISCO -0.2218
-4.7735 DISCOUNT -0.2218
-4.7735 DISCOUNTED -0.2218
-4.7735 DISCOUNTS -0.2218
-4.7735 DISCOVER -0.2218
-4.7735 DISCOVERED -0.2218
-4.7735 DISCOVERY -0.2218
-4.7735 DISCRETE -0.2218
-4.7735 DISCRETION -0.2218
-4.7735 DISCRIMINATION -0.2218
-4.7735 DISCS -0.2218
-4.7735 DISCUSS -0.2218
-4.7735 DISCUSSED -0.2218
-4.7735 DISCUSSES -0.2218
-4.7735 DISCUSSING -0.2218
-4.7735 DISCUSSION -0.2218
-4.7735 DISCUSSIONS -0.2218
-4.7735 DISEASE -0.2218
-4.7735 DISEASES -0.2218
-4.7735 DISH -0.2218
-4.7735 DISHES -0.2218
-4.7735 DISK -0.2218
-4.7735 DISKS -0.2218
-4.7735 DISNEY -0.2218
-4.7735 DISORDER -0.2218
-4.7735 DISORDERS -0.2218
-4.7735 DISPATCH -0.2218
-4.7735 DISPATCHED -0.2218
-4.7735 DISPLAY -0.2218
-4.7735 DISPLAYED -0.2218
-4.7735 DISPLAYING -0.2218
-4.7735 DISPLAYS -0.2218
-4.7735 DISPOSAL -0.2218
-4.7735 DISPOSITION -0.2218
-4.7735 DISPUTE -0.2218
-4.7735 DISPUTES -0.2218
-4.7735 DIST -0.2218
-4.7735 DISTANCE -0.2218
-4.7735 DISTANCES -0.2218
-4.7735 DISTANT -0.2218
-4.7735 DISTINCT -0.2218
-4.7735 DISTINCTION -0.2218
-4.7735 DISTINGUISHED -0.2218
-4.7735 DISTRIBUTE -0.2218
-4.7735 DISTRIBUTED -0.2218
-4.7735 DISTRIBUTION -0.2218
-4.7735 DISTRIBUTIONS -0.2218
-4.7735 DISTRIBUTOR -0.2218
-4.7735 DISTRIBUTORS -0.2218
-4.7735 DISTRICT -0.2218
-4.7735 DISTRICTS -0.2218
-4.7735 DISTURBED -0.2218
-4.7735 DIV -0.2218
-4.7735 DIVE -0.2218
-4.7735 DIVERSE -0.2218
-4.7735 DIVERSITY -0.2218
-4.7735 DIVIDE -0.2218
-4.7735 DIVIDED -0.2218
-4.7735 DIVIDEND -0.2218
-4.7735 DIVINE -0.2218
-4.7735 DIVING -0.2218
-4.7735 DIVISION -0.2218
-4.7735 DIVISIONS -0.2218
-4.7735 DIVORCE -0.2218
-4.7735 DIVX -0.2218
-4.7735 DIY -0.2218
-4.7735 DJ -0.2218
-4.7735 DK -0.2218
-4.7735 DL -0.2218
-4.7735 DM -0.2218
-4.7735 DNA -0.2218
-4.7735 DNS -0.2218
-4.7735 DO -0.2218
-4.7735 DOC -0.2218
-4.7735 DOCK -0.2218
-4.7735 DOCS -0.2218
-4.7735 DOCTOR -0.2218
-4.7735 DOCTORS -0.2218
-4.7735 DOCTRINE -0.2218
-4.7735 DOCUMENT -0.2218
-4.7735 DOCUMENTARY -0.2218
-4.7735 DOCUMENTATION -0.2218
-4.7735 DOCUMENTED -0.2218
-4.7735 DOCUMENTS -0.2218
-4.7735 DOD -0.2218
-4.7735 DODGE -0.2218
-4.7735 DOE -0.2218
-4.7735 DOES -0.2218
-4.7735 DOG -0.2218
-4.7735 DOGS -0.2218
-4.7735 DOING -0.2218
-4.7735 DOLL -0.2218
-4.7735 DOLLAR -0.2218
-4.7735 DOLLARS -0.2218
-4.7735 DOLLS -0.2218
-4.7735 DOM -0.2218
-4.7735 DOMAIN -0.2218
-4.7735 DOMAINS -0.2218
-4.7735 DOME -0.2218
-4.7735 DOMESTIC -0.2218
-4.7735 DOMINANT -0.2218
-4.7735 DOMINICAN -0.2218
-4.7735 DON -0.2218
-4.7735 DONALD -0.2218
-4.7735 DONATE -0.2218
-4.7735 DONATED -0.2218
-4.7735 DONATION -0.2218
-4.7735 DONATIONS -0.2218
-4.7735 DONE -0.2218
-4.7735 DONNA -0.2218
-4.7735 DONOR -0.2218
-4.7735 DONORS -0.2218
-4.7735 DONT -0.2218
-4.7735 DOOM -0.2218
-4.7735 DOOR -0.2218
-4.7735 DOORS -0.2218
-4.7735 DOS -0.2218
-4.7735 DOSAGE -0.2218
-4.7735 DOSE -0.2218
-4.7735 DOT -0.2218
-4.7735 DOUBLE -0.2218
-4.7735 DOUBT -0.2218
-4.7735 DOUG -0.2218
-4.7735 DOUGLAS -0.2218
-4.7735 DOVER -0.2218
-4.7735 DOW -0.2218
-4.7735 DOWN -0.2218
-4.7735 DOWNLOAD -0.2218
-4.7735 DOWNLOADABLE -0.2218
-4.7735 DOWNLOADED -0.2218
-4.7735 DOWNLOADING -0.2218
-4.7735 DOWNLOADS -0.2218
-4.7735 DOWNTOWN -0.2218
-4.7735 DOZEN -0.2218
-4.7735 DOZENS -0.2218
-4.7735 DP -0.2218
-4.7735 DPI -0.2218
-4.7735 DR -0.2218
-4.7735 DRAFT -0.2218
-4.7735 DRAG -0.2218
-4.7735 DRAGON -0.2218
-4.7735 DRAIN -0.2218
-4.7735 DRAINAGE -0.2218
-4.7735 DRAMA -0.2218
-4.7735 DRAMATIC -0.2218
-4.7735 DRAMATICALLY -0.2218
-4.7735 DRAW -0.2218
-4.7735 DRAWING -0.2218
-4.7735 DRAWINGS -0.2218
-4.7735 DRAWN -0.2218
-4.7735 DRAWS -0.2218
-4.7735 DREAM -0.2218
-4.7735 DREAMS -0.2218
-4.7735 DRESS -0.2218
-4.7735 DRESSED -0.2218
-4.7735 DRESSES -0.2218
-4.7735 DRESSING -0.2218
-4.7735 DREW -0.2218
-4.7735 DRIED -0.2218
-4.7735 DRILL -0.2218
-4.7735 DRILLING -0.2218
-4.7735 DRINK -0.2218
-4.7735 DRINKING -0.2218
-4.7735 DRINKS -0.2218
-4.7735 DRIVE -0.2218
-4.7735 DRIVEN -0.2218
-4.7735 DRIVER -0.2218
-4.7735 DRIVERS -0.2218
-4.7735 DRIVES -0.2218
-4.7735 DRIVING -0.2218
-4.7735 DROP -0.2218
-4.7735 DROPPED -0.2218
-4.7735 DROPS -0.2218
-4.7735 DROVE -0.2218
-4.7735 DRUG -0.2218
-4.7735 DRUGS -0.2218
-4.7735 DRUM -0.2218
-4.7735 DRUMS -0.2218
-4.7735 DRUNK -0.2218
-4.7735 DRY -0.2218
-4.7735 DRYER -0.2218
-4.7735 DS -0.2218
-4.7735 DSC -0.2218
-4.7735 DSL -0.2218
-4.7735 DT -0.2218
-4.7735 DTS -0.2218
-4.7735 DU -0.2218
-4.7735 DUAL -0.2218
-4.7735 DUBAI -0.2218
-4.7735 DUBLIN -0.2218
-4.7735 DUCK -0.2218
-4.7735 DUDE -0.2218
-4.7735 DUE -0.2218
-4.7735 DUI -0.2218
-4.7735 DUKE -0.2218
-4.7735 DUMB -0.2218
-4.7735 DUMP -0.2218
-4.7735 DUNCAN -0.2218
-4.7735 DUO -0.2218
-4.7735 DUPLICATE -0.2218
-4.7735 DURABLE -0.2218
-4.7735 DURATION -0.2218
-4.7735 DURHAM -0.2218
-4.7735 DURING -0.2218
-4.7735 DUST -0.2218
-4.7735 DUTCH -0.2218
-4.7735 DUTIES -0.2218
-4.7735 DUTY -0.2218
-4.7735 DV -0.2218
-4.7735 DVD -0.2218
-4.7735 DVDS -0.2218
-4.7735 DX -0.2218
-4.7735 DYING -0.2218
-4.7735 DYLAN -0.2218
-4.7735 DYNAMIC -0.2218
-4.7735 DYNAMICS -0.2218
-4.7735 E -0.2218
-4.7735 EA -0.2218
-4.7735 EACH -0.2218
-4.7735 EAGLE -0.2218
-4.7735 EAGLES -0.2218
-4.7735 EAR -0.2218
-4.7735 EARL -0.2218
-4.7735 EARLIER -0.2218
-4.7735 EARLIEST -0.2218
-4.7735 EARLY -0.2218
-4.7735 EARN -0.2218
-4.7735 EARNED -0.2218
-4.7735 EARNING -0.2218
-4.7735 EARNINGS -0.2218
-4.7735 EARRINGS -0.2218
-4.7735 EARS -0.2218
-4.7735 EARTH -0.2218
-4.7735 EARTHQUAKE -0.2218
-4.7735 EASE -0.2218
-4.7735 EASIER -0.2218
-4.7735 EASILY -0.2218
-4.7735 EAST -0.2218
-4.7735 EASTER -0.2218
-4.7735 EASTERN -0.2218
-4.7735 EASY -0.2218
-4.7735 EAT -0.2218
-4.7735 EATING -0.2218
-4.7735 EAU -0.2218
-4.7735 EBAY -0.2218
-4.7735 EBONY -0.2218
-4.7735 EBOOK -0.2218
-4.7735 EBOOKS -0.2218
-4.7735 EC -0.2218
-4.7735 ECHO -0.2218
-4.7735 ECLIPSE -0.2218
-4.7735 ECO -0.2218
-4.7735 ECOLOGICAL -0.2218
-4.7735 ECOLOGY -0.2218
-4.7735 ECOMMERCE -0.2218
-4.7735 ECONOMIC -0.2218
-4.7735 ECONOMICS -0.2218
-4.7735 ECONOMIES -0.2218
-4.7735 ECONOMY -0.2218
-4.7735 ECUADOR -0.2218
-4.7735 ED -0.2218
-4.7735 EDDIE -0.2218
-4.7735 EDEN -0.2218
-4.7735 EDGAR -0.2218
-4.7735 EDGE -0.2218
-4.7735 EDGES -0.2218
-4.7735 EDINBURGH -0.2218
-4.7735 EDIT -0.2218
-4.7735 EDITED -0.2218
-4.7735 EDITING -0.2218
-4.7735 EDITION -0.2218
-4.7735 EDITIONS -0.2218
-4.7735 EDITOR -0.2218
-4.7735 EDITORIAL -0.2218
-4.7735 EDITORIALS -0.2218
-4.7735 EDITORS -0.2218
-4.7735 EDMONTON -0.2218
-4.7735 EDS -0.2218
-4.7735 EDT -0.2218
-4.7735 EDUCATED -0.2218
-4.7735 EDUCATION -0.2218
-4.7735 EDUCATIONAL -0.2218
-4.7735 EDUCATORS -0.2218
-4.7735 EDWARD -0.2218
-4.7735 EDWARDS -0.2218
-4.7735 EE -0.2218
-4.7735 EF -0.2218
-4.7735 EFFECT -0.2218
-4.7735 EFFECTIVE -0.2218
-4.7735 EFFECTIVELY -0.2218
-4.7735 EFFECTIVENESS -0.2218
-4.7735 EFFECTS -0.2218
-4.7735 EFFICIENCY -0.2218
-4.7735 EFFICIENT -0.2218
-4.7735 EFFICIENTLY -0.2218
-4.7735 EFFORT -0.2218
-4.7735 EFFORTS -0.2218
-4.7735 EG -0.2218
-4.7735 EGG -0.2218
-4.7735 EGGS -0.2218
-4.7735 EGYPT -0.2218
-4.7735 EGYPTIAN -0.2218
-4.7735 EH -0.2218
-4.7735 EIGHT -0.2218
-4.7735 EITHER -0.2218
-4.7735 EL -0.2218
-4.7735 ELDER -0.2218
-4.7735 ELDERLY -0.2218
-4.7735 ELECT -0.2218
-4.7735 ELECTED -0.2218
-4.7735 ELECTION -0.2218
-4.7735 ELECTIONS -0.2218
-4.7735 ELECTORAL -0.2218
-4.7735 ELECTRIC -0.2218
-4.7735 ELECTRICAL -0.2218
-4.7735 ELECTRICITY -0.2218
-4.7735 ELECTRO -0.2218
-4.7735 ELECTRON -0.2218
-4.7735 ELECTRONIC -0.2218
-4.7735 ELECTRONICS -0.2218
-4.7735 ELEGANT -0.2218
-4.7735 ELEMENT -0.2218
-4.7735 ELEMENTARY -0.2218
-4.7735 ELEMENTS -0.2218
-4.7735 ELEPHANT -0.2218
-4.7735 ELEVATION -0.2218
-4.7735 ELEVEN -0.2218
-4.7735 ELIGIBILITY -0.2218
-4.7735 ELIGIBLE -0.2218
-4.7735 ELIMINATE -0.2218
-4.7735 ELIMINATION -0.2218
-4.7735 ELITE -0.2218
-4.7735 ELIZABETH -0.2218
-4.7735 ELLEN -0.2218
-4.7735 ELLIOTT -0.2218
-4.7735 ELLIS -0.2218
-4.7735 ELSE -0.2218
-4.7735 ELSEWHERE -0.2218
-4.7735 ELVIS -0.2218
-4.7735 EM -0.2218
-4.7735 EMACS -0.2218
-4.7735 EMAIL -0.2218
-4.7735 EMAILS -0.2218
-4.7735 EMBASSY -0.2218
-4.7735 EMBEDDED -0.2218
-4.7735 EMERALD -0.2218
-4.7735 EMERGENCY -0.2218
-4.7735 EMERGING -0.2218
-4.7735 EMILY -0.2218
-4.7735 EMINEM -0.2218
-4.7735 EMIRATES -0.2218
-4.7735 EMISSION -0.2218
-4.7735 EMISSIONS -0.2218
-4.7735 EMMA -0.2218
-4.7735 EMOTIONAL -0.2218
-4.7735 EMOTIONS -0.2218
-4.7735 EMPEROR -0.2218
-4.7735 EMPHASIS -0.2218
-4.7735 EMPIRE -0.2218
-4.7735 EMPIRICAL -0.2218
-4.7735 EMPLOY -0.2218
-4.7735 EMPLOYED -0.2218
-4.7735 EMPLOYEE -0.2218
-4.7735 EMPLOYEES -0.2218
-4.7735 EMPLOYER -0.2218
-4.7735 EMPLOYERS -0.2218
-4.7735 EMPLOYMENT -0.2218
-4.7735 EMPTY -0.2218
-4.7735 EN -0.2218
-4.7735 ENABLE -0.2218
-4.7735 ENABLED -0.2218
-4.7735 ENABLES -0.2218
-4.7735 ENABLING -0.2218
-4.7735 ENB -0.2218
-4.7735 ENCLOSED -0.2218
-4.7735 ENCLOSURE -0.2218
-4.7735 ENCODING -0.2218
-4.7735 ENCOUNTER -0.2218
-4.7735 ENCOUNTERED -0.2218
-4.7735 ENCOURAGE -0.2218
-4.7735 ENCOURAGED -0.2218
-4.7735 ENCOURAGES -0.2218
-4.7735 ENCOURAGING -0.2218
-4.7735 ENCRYPTION -0.2218
-4.7735 ENCYCLOPEDIA -0.2218
-4.7735 END -0.2218
-4.7735 ENDANGERED -0.2218
-4.7735 ENDED -0.2218
-4.7735 ENDIF -0.2218
-4.7735 ENDING -0.2218
-4.7735 ENDLESS -0.2218
-4.7735 ENDORSED -0.2218
-4.7735 ENDORSEMENT -0.2218
-4.7735 ENDS -0.2218
-4.7735 ENEMIES -0.2218
-4.7735 ENEMY -0.2218
-4.7735 ENERGY -0.2218
-4.7735 ENFORCEMENT -0.2218
-4.7735 ENG -0.2218
-4.7735 ENGAGE -0.2218
-4.7735 ENGAGED -0.2218
-4.7735 ENGAGEMENT -0.2218
-4.7735 ENGAGING -0.2218
-4.7735 ENGINE -0.2218
-4.7735 ENGINEER -0.2218
-4.7735 ENGINEERING -0.2218
-4.7735 ENGINEERS -0.2218
-4.7735 ENGINES -0.2218
-4.7735 ENGLAND -0.2218
-4.7735 ENGLISH -0.2218
-4.7735 ENHANCE -0.2218
-4.7735 ENHANCED -0.2218
-4.7735 ENHANCEMENT -0.2218
-4.7735 ENHANCEMENTS -0.2218
-4.7735 ENHANCING -0.2218
-4.7735 ENJOY -0.2218
-4.7735 ENJOYED -0.2218
-4.7735 ENJOYING -0.2218
-4.7735 ENLARGE -0.2218
-4.7735 ENLARGEMENT -0.2218
-4.7735 ENORMOUS -0.2218
-4.7735 ENOUGH -0.2218
-4.7735 ENQUIRIES -0.2218
-4.7735 ENQUIRY -0.2218
-4.7735 ENROLLED -0.2218
-4.7735 ENROLLMENT -0.2218
-4.7735 ENSEMBLE -0.2218
-4.7735 ENSURE -0.2218
-4.7735 ENSURES -0.2218
-4.7735 ENSURING -0.2218
-4.7735 ENT -0.2218
-4.7735 ENTER -0.2218
-4.7735 ENTERED -0.2218
-4.7735 ENTERING -0.2218
-4.7735 ENTERPRISE -0.2218
-4.7735 ENTERPRISES -0.2218
-4.7735 ENTERS -0.2218
-4.7735 ENTERTAINING -0.2218
-4.7735 ENTERTAINMENT -0.2218
-4.7735 ENTIRE -0.2218
-4.7735 ENTIRELY -0.2218
-4.7735 ENTITIES -0.2218
-4.7735 ENTITLED -0.2218
-4.7735 ENTITY -0.2218
-4.7735 ENTRANCE -0.2218
-4.7735 ENTREPRENEUR -0.2218
-4.7735 ENTREPRENEURS -0.2218
-4.7735 ENTRIES -0.2218
-4.7735 ENTRY -0.2218
-4.7735 ENVELOPE -0.2218
-4.7735 ENVIRONMENT -0.2218
-4.7735 ENVIRONMENTAL -0.2218
-4.7735 ENVIRONMENTS -0.2218
-4.7735 ENZYME -0.2218
-4.7735 EOS -0.2218
-4.7735 EP -0.2218
-4.7735 EPA -0.2218
-4.7735 EPIC -0.2218
-4.7735 EPINIONS -0.2218
-4.7735 EPISODE -0.2218
-4.7735 EPISODES -0.2218
-4.7735 EPSON -0.2218
-4.7735 EQ -0.2218
-4.7735 EQUAL -0.2218
-4.7735 EQUALITY -0.2218
-4.7735 EQUALLY -0.2218
-4.7735 EQUATION -0.2218
-4.7735 EQUATIONS -0.2218
-4.7735 EQUILIBRIUM -0.2218
-4.7735 EQUIPMENT -0.2218
-4.7735 EQUIPPED -0.2218
-4.7735 EQUITY -0.2218
-4.7735 EQUIVALENT -0.2218
-4.7735 ER -0.2218
-4.7735 ERA -0.2218
-4.7735 ERIC -0.2218
-4.7735 ERICSSON -0.2218
-4.7735 ERIK -0.2218
-4.7735 EROTICA -0.2218
-4.7735 ERP -0.2218
-4.7735 ERROR -0.2218
-4.7735 ERRORS -0.2218
-4.7735 ES -0.2218
-4.7735 ESCAPE -0.2218
-4.7735 ESCORTS -0.2218
-4.7735 ESPECIALLY -0.2218
-4.7735 ESPN -0.2218
-4.7735 ESSAY -0.2218
-4.7735 ESSAYS -0.2218
-4.7735 ESSENCE -0.2218
-4.7735 ESSENTIAL -0.2218
-4.7735 ESSENTIALLY -0.2218
-4.7735 ESSENTIALS -0.2218
-4.7735 ESSEX -0.2218
-4.7735 EST -0.2218
-4.7735 ESTABLISH -0.2218
-4.7735 ESTABLISHED -0.2218
-4.7735 ESTABLISHING -0.2218
-4.7735 ESTABLISHMENT -0.2218
-4.7735 ESTATE -0.2218
-4.7735 ESTATES -0.2218
-4.7735 ESTIMATE -0.2218
-4.7735 ESTIMATED -0.2218
-4.7735 ESTIMATES -0.2218
-4.7735 ESTIMATION -0.2218
-4.7735 ESTONIA -0.2218
-4.7735 ET -0.2218
-4.7735 ETC -0.2218
-4.7735 ETERNAL -0.2218
-4.7735 ETHERNET -0.2218
-4.7735 ETHICAL -0.2218
-4.7735 ETHICS -0.2218
-4.7735 ETHIOPIA -0.2218
-4.7735 ETHNIC -0.2218
-4.7735 EU -0.2218
-4.7735 EUGENE -0.2218
-4.7735 EUR -0.2218
-4.7735 EURO -0.2218
-4.7735 EUROPE -0.2218
-4.7735 EUROPEAN -0.2218
-4.7735 EUROS -0.2218
-4.7735 EV -0.2218
-4.7735 EVA -0.2218
-4.7735 EVAL -0.2218
-4.7735 EVALUATE -0.2218
-4.7735 EVALUATED -0.2218
-4.7735 EVALUATING -0.2218
-4.7735 EVALUATION -0.2218
-4.7735 EVALUATIONS -0.2218
-4.7735 EVANESCENCE -0.2218
-4.7735 EVANS -0.2218
-4.7735 EVE -0.2218
-4.7735 EVEN -0.2218
-4.7735 EVENING -0.2218
-4.7735 EVENT -0.2218
-4.7735 EVENTS -0.2218
-4.7735 EVENTUALLY -0.2218
-4.7735 EVER -0.2218
-4.7735 EVERY -0.2218
-4.7735 EVERYBODY -0.2218
-4.7735 EVERYDAY -0.2218
-4.7735 EVERYONE -0.2218
-4.7735 EVERYTHING -0.2218
-4.7735 EVERYWHERE -0.2218
-4.7735 EVIDENCE -0.2218
-4.7735 EVIDENT -0.2218
-4.7735 EVIL -0.2218
-4.7735 EVOLUTION -0.2218
-4.7735 EX -0.2218
-4.7735 EXACT -0.2218
-4.7735 EXACTLY -0.2218
-4.7735 EXAM -0.2218
-4.7735 EXAMINATION -0.2218
-4.7735 EXAMINATIONS -0.2218
-4.7735 EXAMINE -0.2218
-4.7735 EXAMINED -0.2218
-4.7735 EXAMINES -0.2218
-4.7735 EXAMINING -0.2218
-4.7735 EXAMPLE -0.2218
-4.7735 EXAMPLES -0.2218
-4.7735 EXAMS -0.2218
-4.7735 EXCEED -0.2218
-4.7735 EXCEL -0.2218
-4.7735 EXCELLENCE -0.2218
-4.7735 EXCELLENT -0.2218
-4.7735 EXCEPT -0.2218
-4.7735 EXCEPTION -0.2218
-4.7735 EXCEPTIONAL -0.2218
-4.7735 EXCEPTIONS -0.2218
-4.7735 EXCERPT -0.2218
-4.7735 EXCESS -0.2218
-4.7735 EXCESSIVE -0.2218
-4.7735 EXCHANGE -0.2218
-4.7735 EXCHANGES -0.2218
-4.7735 EXCITED -0.2218
-4.7735 EXCITEMENT -0.2218
-4.7735 EXCITING -0.2218
-4.7735 EXCLUDE -0.2218
-4.7735 EXCLUDED -0.2218
-4.7735 EXCLUDING -0.2218
-4.7735 EXCLUSION -0.2218
-4.7735 EXCLUSIVE -0.2218
-4.7735 EXCLUSIVELY -0.2218
-4.7735 EXCUSE -0.2218
-4.7735 EXEC -0.2218
-4.7735 EXECUTE -0.2218
-4.7735 EXECUTED -0.2218
-4.7735 EXECUTION -0.2218
-4.7735 EXECUTIVE -0.2218
-4.7735 EXECUTIVES -0.2218
-4.7735 EXEMPT -0.2218
-4.7735 EXEMPTION -0.2218
-4.7735 EXERCISE -0.2218
-4.7735 EXERCISES -0.2218
-4.7735 EXHAUST -0.2218
-4.7735 EXHIBIT -0.2218
-4.7735 EXHIBITION -0.2218
-4.7735 EXHIBITIONS -0.2218
-4.7735 EXHIBITS -0.2218
-4.7735 EXIST -0.2218
-4.7735 EXISTED -0.2218
-4.7735 EXISTENCE -0.2218
-4.7735 EXISTING -0.2218
-4.7735 EXISTS -0.2218
-4.7735 EXIT -0.2218
-4.7735 EXOTIC -0.2218
-4.7735 EXP -0.2218
-4.7735 EXPAND -0.2218
-4.7735 EXPANDED -0.2218
-4.7735 EXPANDING -0.2218
-4.7735 EXPANSION -0.2218
-4.7735 EXPANSYS -0.2218
-4.7735 EXPECT -0.2218
-4.7735 EXPECTATIONS -0.2218
-4.7735 EXPECTED -0.2218
-4.7735 EXPECTS -0.2218
-4.7735 EXPEDIA -0.2218
-4.7735 EXPENDITURE -0.2218
-4.7735 EXPENDITURES -0.2218
-4.7735 EXPENSE -0.2218
-4.7735 EXPENSES -0.2218
-4.7735 EXPENSIVE -0.2218
-4.7735 EXPERIENCE -0.2218
-4.7735 EXPERIENCED -0.2218
-4.7735 EXPERIENCES -0.2218
-4.7735 EXPERIENCING -0.2218
-4.7735 EXPERIMENT -0.2218
-4.7735 EXPERIMENTAL -0.2218
-4.7735 EXPERIMENTS -0.2218
-4.7735 EXPERT -0.2218
-4.7735 EXPERTISE -0.2218
-4.7735 EXPERTS -0.2218
-4.7735 EXPIRATION -0.2218
-4.7735 EXPIRED -0.2218
-4.7735 EXPIRES -0.2218
-4.7735 EXPLAIN -0.2218
-4.7735 EXPLAINED -0.2218
-4.7735 EXPLAINING -0.2218
-4.7735 EXPLAINS -0.2218
-4.7735 EXPLANATION -0.2218
-4.7735 EXPLICIT -0.2218
-4.7735 EXPLICITLY -0.2218
-4.7735 EXPLORATION -0.2218
-4.7735 EXPLORE -0.2218
-4.7735 EXPLORER -0.2218
-4.7735 EXPLORING -0.2218
-4.7735 EXPLOSION -0.2218
-4.7735 EXPO -0.2218
-4.7735 EXPORT -0.2218
-4.7735 EXPORTS -0.2218
-4.7735 EXPOSED -0.2218
-4.7735 EXPOSURE -0.2218
-4.7735 EXPRESS -0.2218
-4.7735 EXPRESSED -0.2218
-4.7735 EXPRESSION -0.2218
-4.7735 EXPRESSIONS -0.2218
-4.7735 EXT -0.2218
-4.7735 EXTEND -0.2218
-4.7735 EXTENDED -0.2218
-4.7735 EXTENDING -0.2218
-4.7735 EXTENDS -0.2218
-4.7735 EXTENSION -0.2218
-4.7735 EXTENSIONS -0.2218
-4.7735 EXTENSIVE -0.2218
-4.7735 EXTENT -0.2218
-4.7735 EXTERIOR -0.2218
-4.7735 EXTERNAL -0.2218
-4.7735 EXTRA -0.2218
-4.7735 EXTRACT -0.2218
-4.7735 EXTRACTION -0.2218
-4.7735 EXTRAORDINARY -0.2218
-4.7735 EXTRAS -0.2218
-4.7735 EXTREME -0.2218
-4.7735 EXTREMELY -0.2218
-4.7735 EYE -0.2218
-4.7735 EYED -0.2218
-4.7735 EYES -0.2218
-4.7735 EZ -0.2218
-4.7735 F -0.2218
-4.7735 FA -0.2218
-4.7735 FABRIC -0.2218
-4.7735 FABRICS -0.2218
-4.7735 FABULOUS -0.2218
-4.7735 FACE -0.2218
-4.7735 FACED -0.2218
-4.7735 FACES -0.2218
-4.7735 FACIAL -0.2218
-4.7735 FACILITATE -0.2218
-4.7735 FACILITIES -0.2218
-4.7735 FACILITY -0.2218
-4.7735 FACING -0.2218
-4.7735 FACT -0.2218
-4.7735 FACTOR -0.2218
-4.7735 FACTORS -0.2218
-4.7735 FACTORY -0.2218
-4.7735 FACTS -0.2218
-4.7735 FACULTY -0.2218
-4.7735 FAIL -0.2218
-4.7735 FAILED -0.2218
-4.7735 FAILING -0.2218
-4.7735 FAILS -0.2218
-4.7735 FAILURE -0.2218
-4.7735 FAILURES -0.2218
-4.7735 FAIR -0.2218
-4.7735 FAIRFIELD -0.2218
-4.7735 FAIRLY -0.2218
-4.7735 FAIRY -0.2218
-4.7735 FAITH -0.2218
-4.7735 FAKE -0.2218
-4.7735 FALL -0.2218
-4.7735 FALLEN -0.2218
-4.7735 FALLING -0.2218
-4.7735 FALLS -0.2218
-4.7735 FALSE -0.2218
-4.7735 FAME -0.2218
-4.7735 FAMILIAR -0.2218
-4.7735 FAMILIES -0.2218
-4.7735 FAMILY -0.2218
-4.7735 FAMOUS -0.2218
-4.7735 FAN -0.2218
-4.7735 FANCY -0.2218
-4.7735 FANS -0.2218
-4.7735 FANTASTIC -0.2218
-4.7735 FANTASY -0.2218
-4.7735 FAQ -0.2218
-4.7735 FAQS -0.2218
-4.7735 FAR -0.2218
-4.7735 FARE -0.2218
-4.7735 FARES -0.2218
-4.7735 FARM -0.2218
-4.7735 FARMER -0.2218
-4.7735 FARMERS -0.2218
-4.7735 FARMING -0.2218
-4.7735 FARMS -0.2218
-4.7735 FASCINATING -0.2218
-4.7735 FASHION -0.2218
-4.7735 FAST -0.2218
-4.7735 FASTER -0.2218
-4.7735 FASTEST -0.2218
-4.7735 FAT -0.2218
-4.7735 FATAL -0.2218
-4.7735 FATE -0.2218
-4.7735 FATHER -0.2218
-4.7735 FATHERS -0.2218
-4.7735 FATTY -0.2218
-4.7735 FAULT -0.2218
-4.7735 FAVOR -0.2218
-4.7735 FAVORITE -0.2218
-4.7735 FAVORITES -0.2218
-4.7735 FAVORS -0.2218
-4.7735 FAVOUR -0.2218
-4.7735 FAVOURITE -0.2218
-4.7735 FAVOURITES -0.2218
-4.7735 FAX -0.2218
-4.7735 FBI -0.2218
-4.7735 FC -0.2218
-4.7735 FCC -0.2218
-4.7735 FD -0.2218
-4.7735 FDA -0.2218
-4.7735 FE -0.2218
-4.7735 FEAR -0.2218
-4.7735 FEARS -0.2218
-4.7735 FEAT -0.2218
-4.7735 FEATURE -0.2218
-4.7735 FEATURED -0.2218
-4.7735 FEATURES -0.2218
-4.7735 FEATURING -0.2218
-4.7735 FEB -0.2218
-4.7735 FEBRUARY -0.2218
-4.7735 FED -0.2218
-4.7735 FEDERAL -0.2218
-4.7735 FEDERATION -0.2218
-4.7735 FEE -0.2218
-4.7735 FEED -0.2218
-4.7735 FEEDBACK -0.2218
-4.7735 FEEDING -0.2218
-4.7735 FEEDS -0.2218
-4.7735 FEEL -0.2218
-4.7735 FEELING -0.2218
-4.7735 FEELINGS -0.2218
-4.7735 FEELS -0.2218
-4.7735 FEES -0.2218
-4.7735 FEET -0.2218
-4.7735 FELL -0.2218
-4.7735 FELLOW -0.2218
-4.7735 FELLOWSHIP -0.2218
-4.7735 FELT -0.2218
-4.7735 FEMALE -0.2218
-4.7735 FEMALES -0.2218
-4.7735 FENCE -0.2218
-4.7735 FEOF -0.2218
-4.7735 FERRARI -0.2218
-4.7735 FERRY -0.2218
-4.7735 FESTIVAL -0.2218
-4.7735 FESTIVALS -0.2218
-4.7735 FETISH -0.2218
-4.7735 FEVER -0.2218
-4.7735 FEW -0.2218
-4.7735 FEWER -0.2218
-4.7735 FF -0.2218
-4.7735 FG -0.2218
-4.7735 FI -0.2218
-4.7735 FIBER -0.2218
-4.7735 FIBRE -0.2218
-4.7735 FICTION -0.2218
-4.7735 FIELD -0.2218
-4.7735 FIELDS -0.2218
-4.7735 FIFTEEN -0.2218
-4.7735 FIFTH -0.2218
-4.7735 FIFTY -0.2218
-4.7735 FIG -0.2218
-4.7735 FIGHT -0.2218
-4.7735 FIGHTER -0.2218
-4.7735 FIGHTERS -0.2218
-4.7735 FIGHTING -0.2218
-4.7735 FIGURE -0.2218
-4.7735 FIGURED -0.2218
-4.7735 FIGURES -0.2218
-4.7735 FIJI -0.2218
-4.7735 FILE -0.2218
-4.7735 FILED -0.2218
-4.7735 FILENAME -0.2218
-4.7735 FILES -0.2218
-4.7735 FILING -0.2218
-4.7735 FILL -0.2218
-4.7735 FILLED -0.2218
-4.7735 FILLING -0.2218
-4.7735 FILM -0.2218
-4.7735 FILME -0.2218
-4.7735 FILMS -0.2218
-4.7735 FILTER -0.2218
-4.7735 FILTERING -0.2218
-4.7735 FILTERS -0.2218
-4.7735 FIN -0.2218
-4.7735 FINAL -0.2218
-4.7735 FINALLY -0.2218
-4.7735 FINALS -0.2218
-4.7735 FINANCE -0.2218
-4.7735 FINANCES -0.2218
-4.7735 FINANCIAL -0.2218
-4.7735 FINANCING -0.2218
-4.7735 FIND -0.2218
-4.7735 FINDARTICLES -0.2218
-4.7735 FINDER -0.2218
-4.7735 FINDING -0.2218
-4.7735 FINDINGS -0.2218
-4.7735 FINDLAW -0.2218
-4.7735 FINDS -0.2218
-4.7735 FINE -0.2218
-4.7735 FINEST -0.2218
-4.7735 FINGER -0.2218
-4.7735 FINGERS -0.2218
-4.7735 FINISH -0.2218
-4.7735 FINISHED -0.2218
-4.7735 FINISHING -0.2218
-4.7735 FINITE -0.2218
-4.7735 FINLAND -0.2218
-4.7735 FINNISH -0.2218
-4.7735 FIORICET -0.2218
-4.7735 FIRE -0.2218
-4.7735 FIRED -0.2218
-4.7735 FIREFOX -0.2218
-4.7735 FIREPLACE -0.2218
-4.7735 FIRES -0.2218
-4.7735 FIREWALL -0.2218
-4.7735 FIREWIRE -0.2218
-4.7735 FIRM -0.2218
-4.7735 FIRMS -0.2218
-4.7735 FIRMWARE -0.2218
-4.7735 FIRST -0.2218
-4.7735 FISCAL -0.2218
-4.7735 FISH -0.2218
-4.7735 FISHER -0.2218
-4.7735 FISHERIES -0.2218
-4.7735 FISHING -0.2218
-4.7735 FIST -0.2218
-4.7735 FIT -0.2218
-4.7735 FITNESS -0.2218
-4.7735 FITS -0.2218
-4.7735 FITTED -0.2218
-4.7735 FITTING -0.2218
-4.7735 FIVE -0.2218
-4.7735 FIX -0.2218
-4.7735 FIXED -0.2218
-4.7735 FIXES -0.2218
-4.7735 FIXTURES -0.2218
-4.7735 FL -0.2218
-4.7735 FLAG -0.2218
-4.7735 FLAGS -0.2218
-4.7735 FLAME -0.2218
-4.7735 FLASH -0.2218
-4.7735 FLASHERS -0.2218
-4.7735 FLASHING -0.2218
-4.7735 FLAT -0.2218
-4.7735 FLAVOR -0.2218
-4.7735 FLEECE -0.2218
-4.7735 FLEET -0.2218
-4.7735 FLESH -0.2218
-4.7735 FLEX -0.2218
-4.7735 FLEXIBILITY -0.2218
-4.7735 FLEXIBLE -0.2218
-4.7735 FLICKR -0.2218
-4.7735 FLIGHT -0.2218
-4.7735 FLIGHTS -0.2218
-4.7735 FLIP -0.2218
-4.7735 FLOAT -0.2218
-4.7735 FLOATING -0.2218
-4.7735 FLOOD -0.2218
-4.7735 FLOOR -0.2218
-4.7735 FLOORING -0.2218
-4.7735 FLOORS -0.2218
-4.7735 FLOPPY -0.2218
-4.7735 FLORAL -0.2218
-4.7735 FLORENCE -0.2218
-4.7735 FLORIDA -0.2218
-4.7735 FLORIST -0.2218
-4.7735 FLORISTS -0.2218
-4.7735 FLOUR -0.2218
-4.7735 FLOW -0.2218
-4.7735 FLOWER -0.2218
-4.7735 FLOWERS -0.2218
-4.7735 FLOWS -0.2218
-4.7735 FLOYD -0.2218
-4.7735 FLU -0.2218
-4.7735 FLUID -0.2218
-4.7735 FLUSH -0.2218
-4.7735 FLUX -0.2218
-4.7735 FLY -0.2218
-4.7735 FLYER -0.2218
-4.7735 FLYING -0.2218
-4.7735 FM -0.2218
-4.7735 FO -0.2218
-4.7735 FOAM -0.2218
-4.7735 FOCAL -0.2218
-4.7735 FOCUS -0.2218
-4.7735 FOCUSED -0.2218
-4.7735 FOCUSES -0.2218
-4.7735 FOCUSING -0.2218
-4.7735 FOG -0.2218
-4.7735 FOLD -0.2218
-4.7735 FOLDER -0.2218
-4.7735 FOLDERS -0.2218
-4.7735 FOLDING -0.2218
-4.7735 FOLK -0.2218
-4.7735 FOLKS -0.2218
-4.7735 FOLLOW -0.2218
-4.7735 FOLLOWED -0.2218
-4.7735 FOLLOWING -0.2218
-4.7735 FOLLOWS -0.2218
-4.7735 FONT -0.2218
-4.7735 FONTS -0.2218
-4.7735 FOO -0.2218
-4.7735 FOOD -0.2218
-4.7735 FOODS -0.2218
-4.7735 FOOL -0.2218
-4.7735 FOOT -0.2218
-4.7735 FOOTAGE -0.2218
-4.7735 FOOTBALL -0.2218
-4.7735 FOOTWEAR -0.2218
-4.7735 FOR -0.2218
-4.7735 FORBES -0.2218
-4.7735 FORBIDDEN -0.2218
-4.7735 FORCE -0.2218
-4.7735 FORCED -0.2218
-4.7735 FORCES -0.2218
-4.7735 FORD -0.2218
-4.7735 FORECAST -0.2218
-4.7735 FORECASTS -0.2218
-4.7735 FOREIGN -0.2218
-4.7735 FOREST -0.2218
-4.7735 FORESTRY -0.2218
-4.7735 FORESTS -0.2218
-4.7735 FOREVER -0.2218
-4.7735 FORGE -0.2218
-4.7735 FORGET -0.2218
-4.7735 FORGOT -0.2218
-4.7735 FORGOTTEN -0.2218
-4.7735 FORK -0.2218
-4.7735 FORM -0.2218
-4.7735 FORMAL -0.2218
-4.7735 FORMAT -0.2218
-4.7735 FORMATION -0.2218
-4.7735 FORMATS -0.2218
-4.7735 FORMATTING -0.2218
-4.7735 FORMED -0.2218
-4.7735 FORMER -0.2218
-4.7735 FORMERLY -0.2218
-4.7735 FORMING -0.2218
-4.7735 FORMS -0.2218
-4.7735 FORMULA -0.2218
-4.7735 FORT -0.2218
-4.7735 FORTH -0.2218
-4.7735 FORTUNE -0.2218
-4.7735 FORTY -0.2218
-4.7735 FORUM -0.2218
-4.7735 FORUMS -0.2218
-4.7735 FORWARD -0.2218
-4.7735 FORWARDING -0.2218
-4.7735 FOSSIL -0.2218
-4.7735 FOSTER -0.2218
-4.7735 FOTO -0.2218
-4.7735 FOTOS -0.2218
-4.7735 FOUGHT -0.2218
-4.7735 FOUL -0.2218
-4.7735 FOUND -0.2218
-4.7735 FOUNDATION -0.2218
-4.7735 FOUNDATIONS -0.2218
-4.7735 FOUNDED -0.2218
-4.7735 FOUNDER -0.2218
-4.7735 FOUNTAIN -0.2218
-4.7735 FOUR -0.2218
-4.7735 FOURTH -0.2218
-4.7735 FOX -0.2218
-4.7735 FP -0.2218
-4.7735 FR -0.2218
-4.7735 FRACTION -0.2218
-4.7735 FRAGRANCE -0.2218
-4.7735 FRAGRANCES -0.2218
-4.7735 FRAME -0.2218
-4.7735 FRAMED -0.2218
-4.7735 FRAMES -0.2218
-4.7735 FRAMEWORK -0.2218
-4.7735 FRAMING -0.2218
-4.7735 FRANCE -0.2218
-4.7735 FRANCHISE -0.2218
-4.7735 FRANCIS -0.2218
-4.7735 FRANCISCO -0.2218
-4.7735 FRANK -0.2218
-4.7735 FRANKFURT -0.2218
-4.7735 FRANKLIN -0.2218
-4.7735 FRASER -0.2218
-4.7735 FRAUD -0.2218
-4.7735 FRED -0.2218
-4.7735 FREDERICK -0.2218
-4.7735 FREE -0.2218
-4.7735 FREEBSD -0.2218
-4.7735 FREEDOM -0.2218
-4.7735 FREELANCE -0.2218
-4.7735 FREELY -0.2218
-4.7735 FREEWARE -0.2218
-4.7735 FREEZE -0.2218
-4.7735 FREIGHT -0.2218
-4.7735 FRENCH -0.2218
-4.7735 FREQUENCIES -0.2218
-4.7735 FREQUENCY -0.2218
-4.7735 FREQUENT -0.2218
-4.7735 FREQUENTLY -0.2218
-4.7735 FRESH -0.2218
-4.7735 FRI -0.2218
-4.7735 FRIDAY -0.2218
-4.7735 FRIDGE -0.2218
-4.7735 FRIEND -0.2218
-4.7735 FRIENDLY -0.2218
-4.7735 FRIENDS -0.2218
-4.7735 FRIENDSHIP -0.2218
-4.7735 FROG -0.2218
-4.7735 FROM -0.2218
-4.7735 FRONT -0.2218
-4.7735 FRONTIER -0.2218
-4.7735 FRONTPAGE -0.2218
-4.7735 FROST -0.2218
-4.7735 FROZEN -0.2218
-4.7735 FRUIT -0.2218
-4.7735 FRUITS -0.2218
-4.7735 FS -0.2218
-4.7735 FT -0.2218
-4.7735 FTP -0.2218
-4.7735 FU -0.2218
-4.7735 FUEL -0.2218
-4.7735 FUJI -0.2218
-4.7735 FUJITSU -0.2218
-4.7735 FULL -0.2218
-4.7735 FULLY -0.2218
-4.7735 FUN -0.2218
-4.7735 FUNCTION -0.2218
-4.7735 FUNCTIONAL -0.2218
-4.7735 FUNCTIONALITY -0.2218
-4.7735 FUNCTIONING -0.2218
-4.7735 FUNCTIONS -0.2218
-4.7735 FUND -0.2218
-4.7735 FUNDAMENTAL -0.2218
-4.7735 FUNDAMENTALS -0.2218
-4.7735 FUNDED -0.2218
-4.7735 FUNDING -0.2218
-4.7735 FUNDRAISING -0.2218
-4.7735 FUNDS -0.2218
-4.7735 FUNERAL -0.2218
-4.7735 FUNK -0.2218
-4.7735 FUNKY -0.2218
-4.7735 FUNNY -0.2218
-4.7735 FUR -0.2218
-4.7735 FURNISHED -0.2218
-4.7735 FURNISHINGS -0.2218
-4.7735 FURNITURE -0.2218
-4.7735 FURTHER -0.2218
-4.7735 FURTHERMORE -0.2218
-4.7735 FUSION -0.2218
-4.7735 FUTURE -0.2218
-4.7735 FUTURES -0.2218
-4.7735 FUZZY -0.2218
-4.7735 FW -0.2218
-4.7735 FWD -0.2218
-4.7735 FX -0.2218
-4.7735 FY -0.2218
-4.7735 G -0.2218
-4.7735 GA -0.2218
-4.7735 GABRIEL -0.2218
-4.7735 GADGETS -0.2218
-4.7735 GAGE -0.2218
-4.7735 GAIN -0.2218
-4.7735 GAINED -0.2218
-4.7735 GAINS -0.2218
-4.7735 GALAXY -0.2218
-4.7735 GALE -0.2218
-4.7735 GALLERIES -0.2218
-4.7735 GALLERY -0.2218
-4.7735 GAMBLING -0.2218
-4.7735 GAME -0.2218
-4.7735 GAMECUBE -0.2218
-4.7735 GAMES -0.2218
-4.7735 GAMESPOT -0.2218
-4.7735 GAMING -0.2218
-4.7735 GAMMA -0.2218
-4.7735 GANG -0.2218
-4.7735 GAP -0.2218
-4.7735 GAPS -0.2218
-4.7735 GARAGE -0.2218
-4.7735 GARBAGE -0.2218
-4.7735 GARCIA -0.2218
-4.7735 GARDEN -0.2218
-4.7735 GARDENING -0.2218
-4.7735 GARDENS -0.2218
-4.7735 GARLIC -0.2218
-4.7735 GARMIN -0.2218
-4.7735 GARY -0.2218
-4.7735 GAS -0.2218
-4.7735 GASOLINE -0.2218
-4.7735 GATE -0.2218
-4.7735 GATES -0.2218
-4.7735 GATEWAY -0.2218
-4.7735 GATHER -0.2218
-4.7735 GATHERED -0.2218
-4.7735 GATHERING -0.2218
-4.7735 GAUGE -0.2218
-4.7735 GAVE -0.2218
-4.7735 GAY -0.2218
-4.7735 GAYS -0.2218
-4.7735 GAZETTE -0.2218
-4.7735 GB -0.2218
-4.7735 GBA -0.2218
-4.7735 GBP -0.2218
-4.7735 GC -0.2218
-4.7735 GCC -0.2218
-4.7735 GD -0.2218
-4.7735 GDP -0.2218
-4.7735 GE -0.2218
-4.7735 GEAR -0.2218
-4.7735 GEEK -0.2218
-4.7735 GEL -0.2218
-4.7735 GEM -0.2218
-4.7735 GEN -0.2218
-4.7735 GENDER -0.2218
-4.7735 GENE -0.2218
-4.7735 GENEALOGY -0.2218
-4.7735 GENERAL -0.2218
-4.7735 GENERALLY -0.2218
-4.7735 GENERATE -0.2218
-4.7735 GENERATED -0.2218
-4.7735 GENERATES -0.2218
-4.7735 GENERATING -0.2218
-4.7735 GENERATION -0.2218
-4.7735 GENERATIONS -0.2218
-4.7735 GENERATOR -0.2218
-4.7735 GENERATORS -0.2218
-4.7735 GENERIC -0.2218
-4.7735 GENEROUS -0.2218
-4.7735 GENES -0.2218
-4.7735 GENESIS -0.2218
-4.7735 GENETIC -0.2218
-4.7735 GENETICS -0.2218
-4.7735 GENEVA -0.2218
-4.7735 GENIUS -0.2218
-4.7735 GENOME -0.2218
-4.7735 GENRE -0.2218
-4.7735 GENRES -0.2218
-4.7735 GENTLE -0.2218
-4.7735 GENTLEMAN -0.2218
-4.7735 GENTLY -0.2218
-4.7735 GENUINE -0.2218
-4.7735 GEO -0.2218
-4.7735 GEOGRAPHIC -0.2218
-4.7735 GEOGRAPHICAL -0.2218
-4.7735 GEOGRAPHY -0.2218
-4.7735 GEOLOGICAL -0.2218
-4.7735 GEOLOGY -0.2218
-4.7735 GEOMETRY -0.2218
-4.7735 GEORGE -0.2218
-4.7735 GEORGIA -0.2218
-4.7735 GERALD -0.2218
-4.7735 GERMAN -0.2218
-4.7735 GERMANY -0.2218
-4.7735 GET -0.2218
-4.7735 GETS -0.2218
-4.7735 GETTING -0.2218
-4.7735 GG -0.2218
-4.7735 GHANA -0.2218
-4.7735 GHOST -0.2218
-4.7735 GHZ -0.2218
-4.7735 GI -0.2218
-4.7735 GIANT -0.2218
-4.7735 GIANTS -0.2218
-4.7735 GIBRALTAR -0.2218
-4.7735 GIBSON -0.2218
-4.7735 GIF -0.2218
-4.7735 GIFT -0.2218
-4.7735 GIFTS -0.2218
-4.7735 GIG -0.2218
-4.7735 GILBERT -0.2218
-4.7735 GIRL -0.2218
-4.7735 GIRLFRIEND -0.2218
-4.7735 GIRLS -0.2218
-4.7735 GIS -0.2218
-4.7735 GIVE -0.2218
-4.7735 GIVEN -0.2218
-4.7735 GIVES -0.2218
-4.7735 GIVING -0.2218
-4.7735 GL -0.2218
-4.7735 GLAD -0.2218
-4.7735 GLANCE -0.2218
-4.7735 GLASGOW -0.2218
-4.7735 GLASS -0.2218
-4.7735 GLASSES -0.2218
-4.7735 GLEN -0.2218
-4.7735 GLENN -0.2218
-4.7735 GLOBAL -0.2218
-4.7735 GLOBE -0.2218
-4.7735 GLORY -0.2218
-4.7735 GLOSSARY -0.2218
-4.7735 GLOVES -0.2218
-4.7735 GLOW -0.2218
-4.7735 GLUCOSE -0.2218
-4.7735 GM -0.2218
-4.7735 GMBH -0.2218
-4.7735 GMC -0.2218
-4.7735 GMT -0.2218
-4.7735 GNOME -0.2218
-4.7735 GNU -0.2218
-4.7735 GO -0.2218
-4.7735 GOAL -0.2218
-4.7735 GOALS -0.2218
-4.7735 GOAT -0.2218
-4.7735 GODS -0.2218
-4.7735 GOES -0.2218
-4.7735 GOING -0.2218
-4.7735 GOLD -0.2218
-4.7735 GOLDEN -0.2218
-4.7735 GOLF -0.2218
-4.7735 GONE -0.2218
-4.7735 GONNA -0.2218
-4.7735 GOOD -0.2218
-4.7735 GOODS -0.2218
-4.7735 GOOGLE -0.2218
-4.7735 GORDON -0.2218
-4.7735 GORE -0.2218
-4.7735 GORGEOUS -0.2218
-4.7735 GOSPEL -0.2218
-4.7735 GOSSIP -0.2218
-4.7735 GOT -0.2218
-4.7735 GOTHIC -0.2218
-4.7735 GOTO -0.2218
-4.7735 GOTTA -0.2218
-4.7735 GOTTEN -0.2218
-4.7735 GOURMET -0.2218
-4.7735 GOVERNANCE -0.2218
-4.7735 GOVERNING -0.2218
-4.7735 GOVERNMENT -0.2218
-4.7735 GOVERNMENTAL -0.2218
-4.7735 GOVERNMENTS -0.2218
-4.7735 GOVERNOR -0.2218
-4.7735 GP -0.2218
-4.7735 GPL -0.2218
-4.7735 GPS -0.2218
-4.7735 GR -0.2218
-4.7735 GRAB -0.2218
-4.7735 GRACE -0.2218
-4.7735 GRAD -0.2218
-4.7735 GRADE -0.2218
-4.7735 GRADES -0.2218
-4.7735 GRADUALLY -0.2218
-4.7735 GRADUATE -0.2218
-4.7735 GRADUATED -0.2218
-4.7735 GRADUATES -0.2218
-4.7735 GRADUATION -0.2218
-4.7735 GRAHAM -0.2218
-4.7735 GRAIN -0.2218
-4.7735 GRAMMAR -0.2218
-4.7735 GRAMS -0.2218
-4.7735 GRAND -0.2218
-4.7735 GRANDE -0.2218
-4.7735 GRANNY -0.2218
-4.7735 GRANT -0.2218
-4.7735 GRANTED -0.2218
-4.7735 GRANTS -0.2218
-4.7735 GRAPH -0.2218
-4.7735 GRAPHIC -0.2218
-4.7735 GRAPHICAL -0.2218
-4.7735 GRAPHICS -0.2218
-4.7735 GRAPHS -0.2218
-4.7735 GRAS -0.2218
-4.7735 GRASS -0.2218
-4.7735 GRATEFUL -0.2218
-4.7735 GRATIS -0.2218
-4.7735 GRATUIT -0.2218
-4.7735 GRAVE -0.2218
-4.7735 GRAVITY -0.2218
-4.7735 GRAY -0.2218
-4.7735 GREAT -0.2218
-4.7735 GREATER -0.2218
-4.7735 GREATEST -0.2218
-4.7735 GREATLY -0.2218
-4.7735 GREECE -0.2218
-4.7735 GREEK -0.2218
-4.7735 GREEN -0.2218
-4.7735 GREENE -0.2218
-4.7735 GREENHOUSE -0.2218
-4.7735 GREENSBORO -0.2218
-4.7735 GREETING -0.2218
-4.7735 GREETINGS -0.2218
-4.7735 GREG -0.2218
-4.7735 GREGORY -0.2218
-4.7735 GRENADA -0.2218
-4.7735 GREW -0.2218
-4.7735 GREY -0.2218
-4.7735 GRID -0.2218
-4.7735 GRIFFIN -0.2218
-4.7735 GRILL -0.2218
-4.7735 GRIP -0.2218
-4.7735 GROCERY -0.2218
-4.7735 GROOVE -0.2218
-4.7735 GROSS -0.2218
-4.7735 GROUND -0.2218
-4.7735 GROUNDS -0.2218
-4.7735 GROUNDWATER -0.2218
-4.7735 GROUP -0.2218
-4.7735 GROUPS -0.2218
-4.7735 GROVE -0.2218
-4.7735 GROW -0.2218
-4.7735 GROWING -0.2218
-4.7735 GROWN -0.2218
-4.7735 GROWS -0.2218
-4.7735 GROWTH -0.2218
-4.7735 GS -0.2218
-4.7735 GSM -0.2218
-4.7735 GST -0.2218
-4.7735 GT -0.2218
-4.7735 GTK -0.2218
-4.7735 GUAM -0.2218
-4.7735 GUARANTEE -0.2218
-4.7735 GUARANTEED -0.2218
-4.7735 GUARANTEES -0.2218
-4.7735 GUARD -0.2218
-4.7735 GUARDIAN -0.2218
-4.7735 GUARDS -0.2218
-4.7735 GUATEMALA -0.2218
-4.7735 GUESS -0.2218
-4.7735 GUEST -0.2218
-4.7735 GUESTBOOK -0.2218
-4.7735 GUESTS -0.2218
-4.7735 GUI -0.2218
-4.7735 GUIDANCE -0.2218
-4.7735 GUIDE -0.2218
-4.7735 GUIDED -0.2218
-4.7735 GUIDELINES -0.2218
-4.7735 GUIDES -0.2218
-4.7735 GUILD -0.2218
-4.7735 GUILTY -0.2218
-4.7735 GUINEA -0.2218
-4.7735 GUITAR -0.2218
-4.7735 GUITARS -0.2218
-4.7735 GULF -0.2218
-4.7735 GUN -0.2218
-4.7735 GUNS -0.2218
-4.7735 GURU -0.2218
-4.7735 GUY -0.2218
-4.7735 GUYANA -0.2218
-4.7735 GUYS -0.2218
-4.7735 GYM -0.2218
-4.7735 GZIP -0.2218
-4.7735 H -0.2218
-4.7735 HA -0.2218
-4.7735 HABITAT -0.2218
-4.7735 HABITS -0.2218
-4.7735 HACK -0.2218
-4.7735 HACKER -0.2218
-4.7735 HAD -0.2218
-4.7735 HAIR -0.2218
-4.7735 HAIRY -0.2218
-4.7735 HAITI -0.2218
-4.7735 HALF -0.2218
-4.7735 HALIFAX -0.2218
-4.7735 HALL -0.2218
-4.7735 HALLOWEEN -0.2218
-4.7735 HALO -0.2218
-4.7735 HAM -0.2218
-4.7735 HAMBURG -0.2218
-4.7735 HAMILTON -0.2218
-4.7735 HAMMER -0.2218
-4.7735 HAMPSHIRE -0.2218
-4.7735 HAMPTON -0.2218
-4.7735 HAND -0.2218
-4.7735 HANDBAGS -0.2218
-4.7735 HANDBOOK -0.2218
-4.7735 HANDED -0.2218
-4.7735 HANDHELD -0.2218
-4.7735 HANDHELDS -0.2218
-4.7735 HANDLE -0.2218
-4.7735 HANDLED -0.2218
-4.7735 HANDLES -0.2218
-4.7735 HANDLING -0.2218
-4.7735 HANDMADE -0.2218
-4.7735 HANDS -0.2218
-4.7735 HANDY -0.2218
-4.7735 HANG -0.2218
-4.7735 HANGING -0.2218
-4.7735 HANS -0.2218
-4.7735 HANSEN -0.2218
-4.7735 HAPPEN -0.2218
-4.7735 HAPPENED -0.2218
-4.7735 HAPPENING -0.2218
-4.7735 HAPPENS -0.2218
-4.7735 HAPPINESS -0.2218
-4.7735 HAPPY -0.2218
-4.7735 HARASSMENT -0.2218
-4.7735 HARBOR -0.2218
-4.7735 HARBOUR -0.2218
-4.7735 HARD -0.2218
-4.7735 HARDCOVER -0.2218
-4.7735 HARDER -0.2218
-4.7735 HARDLY -0.2218
-4.7735 HARDWARE -0.2218
-4.7735 HARDWOOD -0.2218
-4.7735 HARLEY -0.2218
-4.7735 HARM -0.2218
-4.7735 HARMFUL -0.2218
-4.7735 HARMONY -0.2218
-4.7735 HAROLD -0.2218
-4.7735 HARPER -0.2218
-4.7735 HARRIS -0.2218
-4.7735 HARRISON -0.2218
-4.7735 HARRY -0.2218
-4.7735 HART -0.2218
-4.7735 HARTFORD -0.2218
-4.7735 HARVARD -0.2218
-4.7735 HARVEST -0.2218
-4.7735 HARVEY -0.2218
-4.7735 HAS -0.2218
-4.7735 HASH -0.2218
-4.7735 HAT -0.2218
-4.7735 HATE -0.2218
-4.7735 HATS -0.2218
-4.7735 HAVE -0.2218
-4.7735 HAVEN -0.2218
-4.7735 HAVING -0.2218
-4.7735 HAWAII -0.2218
-4.7735 HAWAIIAN -0.2218
-4.7735 HAWK -0.2218
-4.7735 HAY -0.2218
-4.7735 HAYES -0.2218
-4.7735 HAZARD -0.2218
-4.7735 HAZARDOUS -0.2218
-4.7735 HAZARDS -0.2218
-4.7735 HB -0.2218
-4.7735 HC -0.2218
-4.7735 HD -0.2218
-4.7735 HDTV -0.2218
-4.7735 HE -0.2218
-4.7735 HEAD -0.2218
-4.7735 HEADED -0.2218
-4.7735 HEADER -0.2218
-4.7735 HEADERS -0.2218
-4.7735 HEADING -0.2218
-4.7735 HEADLINE -0.2218
-4.7735 HEADLINES -0.2218
-4.7735 HEADPHONES -0.2218
-4.7735 HEADQUARTERS -0.2218
-4.7735 HEADS -0.2218
-4.7735 HEADSET -0.2218
-4.7735 HEALING -0.2218
-4.7735 HEALTH -0.2218
-4.7735 HEALTHCARE -0.2218
-4.7735 HEALTHY -0.2218
-4.7735 HEAR -0.2218
-4.7735 HEARD -0.2218
-4.7735 HEARING -0.2218
-4.7735 HEARINGS -0.2218
-4.7735 HEART -0.2218
-4.7735 HEARTS -0.2218
-4.7735 HEAT -0.2218
-4.7735 HEATED -0.2218
-4.7735 HEATER -0.2218
-4.7735 HEATH -0.2218
-4.7735 HEATHER -0.2218
-4.7735 HEATING -0.2218
-4.7735 HEAVEN -0.2218
-4.7735 HEAVILY -0.2218
-4.7735 HEAVY -0.2218
-4.7735 HEBREW -0.2218
-4.7735 HEEL -0.2218
-4.7735 HEIGHT -0.2218
-4.7735 HEIGHTS -0.2218
-4.7735 HELD -0.2218
-4.7735 HELEN -0.2218
-4.7735 HELENA -0.2218
-4.7735 HELICOPTER -0.2218
-4.7735 HELLO -0.2218
-4.7735 HELMET -0.2218
-4.7735 HELP -0.2218
-4.7735 HELPED -0.2218
-4.7735 HELPFUL -0.2218
-4.7735 HELPING -0.2218
-4.7735 HELPS -0.2218
-4.7735 HENCE -0.2218
-4.7735 HENDERSON -0.2218
-4.7735 HENRY -0.2218
-4.7735 HEPATITIS -0.2218
-4.7735 HER -0.2218
-4.7735 HERALD -0.2218
-4.7735 HERB -0.2218
-4.7735 HERBAL -0.2218
-4.7735 HERBS -0.2218
-4.7735 HERE -0.2218
-4.7735 HEREBY -0.2218
-4.7735 HEREIN -0.2218
-4.7735 HERITAGE -0.2218
-4.7735 HERO -0.2218
-4.7735 HEROES -0.2218
-4.7735 HERSELF -0.2218
-4.7735 HEWLETT -0.2218
-4.7735 HEY -0.2218
-4.7735 HH -0.2218
-4.7735 HI -0.2218
-4.7735 HIDDEN -0.2218
-4.7735 HIDE -0.2218
-4.7735 HIERARCHY -0.2218
-4.7735 HIGH -0.2218
-4.7735 HIGHER -0.2218
-4.7735 HIGHEST -0.2218
-4.7735 HIGHLAND -0.2218
-4.7735 HIGHLIGHT -0.2218
-4.7735 HIGHLIGHTED -0.2218
-4.7735 HIGHLIGHTS -0.2218
-4.7735 HIGHLY -0.2218
-4.7735 HIGHS -0.2218
-4.7735 HIGHWAY -0.2218
-4.7735 HIGHWAYS -0.2218
-4.7735 HIKING -0.2218
-4.7735 HILL -0.2218
-4.7735 HILLS -0.2218
-4.7735 HILTON -0.2218
-4.7735 HIM -0.2218
-4.7735 HIMSELF -0.2218
-4.7735 HINDU -0.2218
-4.7735 HINT -0.2218
-4.7735 HINTS -0.2218
-4.7735 HIP -0.2218
-4.7735 HIRE -0.2218
-4.7735 HIRED -0.2218
-4.7735 HIRING -0.2218
-4.7735 HIS -0.2218
-4.7735 HISPANIC -0.2218
-4.7735 HIST -0.2218
-4.7735 HISTORIC -0.2218
-4.7735 HISTORICAL -0.2218
-4.7735 HISTORY -0.2218
-4.7735 HIT -0.2218
-4.7735 HITACHI -0.2218
-4.7735 HITS -0.2218
-4.7735 HITTING -0.2218
-4.7735 HIV -0.2218
-4.7735 HK -0.2218
-4.7735 HL -0.2218
-4.7735 HO -0.2218
-4.7735 HOBBIES -0.2218
-4.7735 HOBBY -0.2218
-4.7735 HOCKEY -0.2218
-4.7735 HOLD -0.2218
-4.7735 HOLDEM -0.2218
-4.7735 HOLDER -0.2218
-4.7735 HOLDERS -0.2218
-4.7735 HOLDING -0.2218
-4.7735 HOLDINGS -0.2218
-4.7735 HOLDS -0.2218
-4.7735 HOLE -0.2218
-4.7735 HOLES -0.2218
-4.7735 HOLIDAY -0.2218
-4.7735 HOLIDAYS -0.2218
-4.7735 HOLLAND -0.2218
-4.7735 HOLLOW -0.2218
-4.7735 HOLLY -0.2218
-4.7735 HOLLYWOOD -0.2218
-4.7735 HOLMES -0.2218
-4.7735 HOLOCAUST -0.2218
-4.7735 HOLY -0.2218
-4.7735 HOME -0.2218
